{"learner":{"attributes":{"scikit_learn":"{\"_estimator_type\": \"classifier\"}"},"feature_names":["age_of_the_patient","gender_of_the_patient","total_bilirubin","direct_bilirubin","alkphos_alkaline_phosphotase","sgpt_alamine_aminotransferase","sgot_aspartate_aminotransferase","total_protiens","alb_albumin","a_g_ratio_albumin_and_globulin_ratio"],"feature_types":["float","float","float","float","float","float","float","float","float","float"],"gradient_booster":{"model":{"gbtree_model_param":{"num_parallel_tree":"1","num_trees":"400"},"iteration_indptr":[0,2,4,6,8,10,12,14,16,18,20,22,24,26,28,30,32,34,36,38,40,42,44,46,48,50,52,54,56,58,60,62,64,66,68,70,72,74,76,78,80,82,84,86,88,90,92,94,96,98,100,102,104,106,108,110,112,114,116,118,120,122,124,126,128,130,132,134,136,138,140,142,144,146,148,150,152,154,156,158,160,162,164,166,168,170,172,174,176,178,180,182,184,186,188,190,192,194,196,198,200,202,204,206,208,210,212,214,216,218,220,222,224,226,228,230,232,234,236,238,240,242,244,246,248,250,252,254,256,258,260,262,264,266,268,270,272,274,276,278,280,282,284,286,288,290,292,294,296,298,300,302,304,306,308,310,312,314,316,318,320,322,324,326,328,330,332,334,336,338,340,342,344,346,348,350,352,354,356,358,360,362,364,366,368,370,372,374,376,378,380,382,384,386,388,390,392,394,396,398,400],"tree_info":[0,1,0,1,0,1,0,1,0,1,0,1,0,1,0,1,0,1,0,1,0,1,0,1,0,1,0,1,0,1,0,1,0,1,0,1,0,1,0,1,0,1,0,1,0,1,0,1,0,1,0,1,0,1,0,1,0,1,0,1,0,1,0,1,0,1,0,1,0,1,0,1,0,1,0,1,0,1,0,1,0,1,0,1,0,1,0,1,0,1,0,1,0,1,0,1,0,1,0,1,0,1,0,1,0,1,0,1,0,1,0,1,0,1,0,1,0,1,0,1,0,1,0,1,0,1,0,1,0,1,0,1,0,1,0,1,0,1,0,1,0,1,0,1,0,1,0,1,0,1,0,1,0,1,0,1,0,1,0,1,0,1,0,1,0,1,0,1,0,1,0,1,0,1,0,1,0,1,0,1,0,1,0,1,0,1,0,1,0,1,0,1,0,1,0,1,0,1,0,1,0,1,0,1,0,1,0,1,0,1,0,1,0,1,0,1,0,1,0,1,0,1,0,1,0,1,0,1,0,1,0,1,0,1,0,1,0,1,0,1,0,1,0,1,0,1,0,1,0,1,0,1,0,1,0,1,0,1,0,1,0,1,0,1,0,1,0,1,0,1,0,1,0,1,0,1,0,1,0,1,0,1,0,1,0,1,0,1,0,1,0,1,0,1,0,1,0,1,0,1,0,1,0,1,0,1,0,1,0,1,0,1,0,1,0,1,0,1,0,1,0,1,0,1,0,1,0,1,0,1,0,1,0,1,0,1,0,1,0,1,0,1,0,1,0,1,0,1,0,1,0,1,0,1,0,1,0,1,0,1,0,1,0,1,0,1,0,1,0,1,0,1,0,1,0,1,0,1,0,1,0,1,0,1,0,1,0,1,0,1,0,1,0,1,0,1,0,1,0,1],"trees":[{"base_weights":[-4.206899E-3,-2.2804208E-1,6.684852E-1,-3.1642127E-1,5.934066E-1,1.0788382E-1,7.70778E-1,-4.2432323E-1,-2.2036139E-2,6.25E-2,8.1846637E-1,1.9883041E-1,-3.7820512E-1,3.5938826E-1,8.886447E-1,5.6847546E-2,-4.563475E-1,-6.278644E-2,1.9772728E-1,-1.9753087E-1,5.052083E-1,8.935108E-1,-3.5897437E-1,5.6962024E-2,-8.1935483E-1,1.9553073E-1,8.891596E-2,1.9976346E-1,3.6503497E-1,-6.347826E-1,6.102088E-1,-3.808247E-1,-6.1293745E-1,-1.0612927E-1,1.9768786E-1,8.8273615E-1,-1.9493671E-1,1.9949812E-1,6.8550366E-1,1.8461539E-1,-1.925926E-1,1.9304349E-1,-4.5812806E-1,-1.9858657E-1,1.862069E-1,1.9491526E-1,-2.6746166E-1,-1.9741936E-1,7.366548E-1,1.9375001E-1,-1.9858657E-1,-1.9444445E-1,9.2243767E-1,-4.9645534E-1,-1.8357489E-1,1.9545455E-1,-6.5056974E-1,-2.6220763E-1,1.1035267E-1,1.9688717E-1,3.4615386E-1,-1.9384615E-1,1.988372E-1,-6.896552E-1,1.7419355E-1,-6.069114E-1,1.968254E-1,1.9907407E-1,-1.21212125E-1,8.571429E-2,1.9626169E-1,-9.308886E-3,-1.1432624E-1,1.9190283E-1,-5.797211E-2,-1.6481481E-1,-8.089005E-2,-6.5973125E-2,1.8484849E-1,1.2093023E-1,-2.9360969E-2,1.8888889E-1,-1.7777778E-1,1.8571429E-1,-1.972973E-1,-1.7014925E-1,1.936508E-1,-1.9466667E-1,1.9322035E-1],"categories":[],"categories_nodes":[],"categories_segments":[],"categories_sizes":[],"default_left":[0,0,0,0,0,0,0,0,0,0,0,0,0,0,0,0,0,0,0,0,0,0,0,0,0,0,0,0,0,0,0,0,0,0,0,0,0,0,0,0,0,0,0,0,0,0,0,0,0,0,0,0,0,0,0,0,0,0,0,0,0,0,0,0,0,0,0,0,0,0,0,0,0,0,0,0,0,0,0,0,0,0,0,0,0,0,0,0,0],"id":0,"left_children":[1,3,5,7,9,11,13,15,17,19,21,-1,23,25,27,29,31,33,-1,-1,35,37,39,41,43,-1,45,-1,47,49,51,53,55,57,-1,59,-1,-1,61,-1,-1,-1,63,-1,-1,-1,65,-1,67,-1,-1,-1,69,71,73,-1,75,77,79,-1,81,-1,-1,83,-1,85,-1,-1,87,-1,-1,-1,-1,-1,-1,-1,-1,-1,-1,-1,-1,-1,-1,-1,-1,-1,-1,-1,-1],"loss_changes":[1.8792177E3,6.8004083E2,1.7860535E2,2.6857727E2,1.0868082E2,2.080241E2,1.27449585E2,9.5369995E1,9.351129E1,1.2695505E2,5.678305E1,0E0,5.994252E1,9.83242E1,1.1775037E2,1.4850052E2,6.837573E1,9.9523575E1,0E0,0E0,1.0813086E2,1.2314941E1,3.108832E1,7.435986E1,4.8017967E1,0E0,1.2982657E2,0E0,1.803634E2,1.0002962E2,1.07371185E2,8.923688E1,1.1350012E2,7.086578E1,0E0,8.035767E0,0E0,0E0,1.0490883E2,0E0,0E0,0E0,3.183442E1,0E0,0E0,0E0,1.2529118E2,0E0,6.248677E1,0E0,0E0,0E0,4.827347E0,8.346411E1,1.7632289E2,0E0,7.836792E1,9.811732E1,1.1182071E2,0E0,2.0051281E1,0E0,0E0,4.2705627E1,0E0,8.973831E1,0E0,0E0,6.209087E1,0E0,0E0,0E0,0E0,0E0,0E0,0E0,0E0,0E0,0E0,0E0,0E0,0E0,0E0,0E0,0E0,0E0,0E0,0E0,0E0],"parents":[2147483647,0,0,1,1,2,2,3,3,4,4,5,5,6,6,7,7,8,8,9,9,10,10,12,12,13,13,14,14,15,15,16,16,17,17,20,20,21,21,22,22,23,23,24,24,26,26,28,28,29,29,30,30,31,31,32,32,33,33,35,35,38,38,42,42,46,46,48,48,52,52,53,53,54,54,56,56,57,57,58,58,60,60,63,63,65,65,68,68],"right_children":[2,4,6,8,10,12,14,16,18,20,22,-1,24,26,28,30,32,34,-1,-1,36,38,40,42,44,-1,46,-1,48,50,52,54,56,58,-1,60,-1,-1,62,-1,-1,-1,64,-1,-1,-1,66,-1,68,-1,-1,-1,70,72,74,-1,76,78,80,-1,82,-1,-1,84,-1,86,-1,-1,88,-1,-1,-1,-1,-1,-1,-1,-1,-1,-1,-1,-1,-1,-1,-1,-1,-1,-1,-1,-1],"split_conditions":[4.0816326E-2,2.964824E-2,5.6668296E-2,7.2789446E-2,1.3214068E-2,2.48E-1,6.122449E-2,3.3781912E-2,8.235302E-1,3.9266134E-3,7.8515905E-1,1.9883041E-1,8.335028E-3,7.962873E-2,2.769907E-1,6.0301507E-3,3.246916E-1,2.6819736E-1,1.9772728E-1,-1.9753087E-1,1.3010775E-2,1.4753297E-1,9.1724773E-4,5.962478E-1,1.2244898E-1,1.9553073E-1,1.6342624E-1,1.9976346E-1,2.965315E-1,2.7549681E-3,1.6263468E-3,4.4724536E-3,1.0164668E-3,1.0552764E-2,1.9768786E-1,9.758081E-3,-1.9493671E-1,1.9949812E-1,1.9491939E-1,1.8461539E-1,-1.925926E-1,1.9304349E-1,8.542714E-3,-1.9858657E-1,1.862069E-1,1.9491526E-1,5.8291458E-2,-1.9741936E-1,7.264289E-1,1.9375001E-1,-1.9858657E-1,-1.9444445E-1,2.8277314E-3,9.1724773E-4,4.396678E-2,1.9545455E-1,4.24E-1,9.554788E-3,8.988764E-2,1.9688717E-1,6.448461E-2,-1.9384615E-1,1.988372E-1,1.0164668E-3,1.7419355E-1,2.92E-1,1.968254E-1,1.9907407E-1,1.1181135E-2,8.571429E-2,1.9626169E-1,-9.308886E-3,-1.1432624E-1,1.9190283E-1,-5.797211E-2,-1.6481481E-1,-8.089005E-2,-6.5973125E-2,1.8484849E-1,1.2093023E-1,-2.9360969E-2,1.8888889E-1,-1.7777778E-1,1.8571429E-1,-1.972973E-1,-1.7014925E-1,1.936508E-1,-1.9466667E-1,1.9322035E-1],"split_indices":[3,5,4,4,6,9,3,4,7,3,7,0,6,4,4,5,9,4,0,0,6,4,3,7,3,0,9,0,4,5,6,6,6,5,0,6,0,0,4,0,0,0,5,0,0,0,5,0,4,0,0,0,6,3,4,0,9,6,4,0,4,0,0,6,0,9,0,0,6,0,0,0,0,0,0,0,0,0,0,0,0,0,0,0,0,0,0,0,0],"split_type":[0,0,0,0,0,0,0,0,0,0,0,0,0,0,0,0,0,0,0,0,0,0,0,0,0,0,0,0,0,0,0,0,0,0,0,0,0,0,0,0,0,0,0,0,0,0,0,0,0,0,0,0,0,0,0,0,0,0,0,0,0,0,0,0,0,0,0,0,0,0,0,0,0,0,0,0,0,0,0,0,0,0,0,0,0,0,0,0,0],"sum_hessian":[1.24785E4,9.3635E3,3.115E3,8.4545E3,9.09E2,4.81E2,2.634E3,6.1865E3,2.268E3,2.71E2,6.38E2,1.7E2,3.11E2,5.875E2,2.0465E3,3.86E2,5.8005E3,2.181E3,8.7E1,8E1,1.91E2,6E2,3.8E1,1.57E2,1.54E2,1.78E2,4.095E2,1.69E3,3.565E2,1.715E2,2.145E2,3.9155E3,1.885E3,2.0955E3,8.55E1,1.525E2,3.85E1,3.975E2,2.025E2,1.2E1,2.6E1,5.65E1,1.005E2,1.405E2,1.35E1,1.17E2,2.925E2,7.65E1,2.8E2,3.1E1,1.405E2,3.5E1,1.795E2,2.4675E3,1.448E3,4.3E1,1.842E3,1.2175E3,8.78E2,1.275E2,2.5E1,3.15E1,1.71E2,8.6E1,1.45E1,2.305E2,6.2E1,2.15E2,6.5E1,2E1,1.595E2,3.535E2,2.114E3,1.225E2,1.3255E3,1.079E3,7.63E2,1.1525E3,6.5E1,3E2,5.78E2,1.7E1,8E0,1.3E1,7.3E1,2E2,3.05E1,3.65E1,2.85E1],"tree_param":{"num_deleted":"0","num_feature":"10","num_nodes":"89","size_leaf_vector":"1"}},{"base_weights":[2.08651E-3,2.2923589E-1,-6.7486423E-1,3.8941488E-1,-1.28072E-1,-1.1680328E-1,-7.776097E-1,-1.23986095E-1,4.261954E-1,-5.4251924E-2,-1.9911699E-1,-1.988372E-1,3.5962147E-1,-3.7027708E-1,-8.955843E-1,1.389728E-1,-9.8029554E-1,4.089258E-1,8.5376346E-1,-1.4475743E-2,-1.9815668E-1,4.9913043E-1,-1.9344263E-1,-1.9559228E-1,-1.0361446E-1,-1.9988243E-1,-3.876967E-1,-4.7058824E-1,5.6122446E-1,-1.9798996E-1,-3.3333334E-1,4.2330217E-1,-9.3495935E-1,-1.8857144E-1,1.9907407E-1,-8.595296E-2,5.610619E-1,-1.8716578E-1,8.2564104E-1,-1.944056E-1,3.5164836E-1,1.9731544E-1,-7.572464E-1,-1.9800995E-1,1.9452055E-1,-1.9245283E-1,7.947214E-1,-1E-1,-0E0,-1.9298247E-1,4.3017742E-1,-1.962963E-1,-5.294118E-1,3.0949447E-1,-1.7165776E-1,7.534791E-1,-1.9375001E-1,-1.9292036E-1,1.9473684E-1,1.9887955E-1,-1.8857144E-1,6.3274336E-1,-1.9583334E-1,-1.9906761E-1,7.2E-2,5.56701E-2,1.9837399E-1,1.0949695E-1,7.10568E-2,1E-1,-1.4666668E-1,1.7058824E-1,-4.7901236E-2,-1.4793389E-1,-1.7434008E-2,-1.8666667E-1,1.7136842E-1,1.9859156E-1,4.7058826E-3,1.9411765E-1,-1.9322035E-1],"categories":[],"categories_nodes":[],"categories_segments":[],"categories_sizes":[],"default_left":[0,0,0,0,0,0,0,0,0,0,0,0,0,0,0,0,0,0,0,0,0,0,0,0,0,0,0,0,0,0,0,0,0,0,0,0,0,0,0,0,0,0,0,0,0,0,0,0,0,0,0,0,0,0,0,0,0,0,0,0,0,0,0,0,0,0,0,0,0,0,0,0,0,0,0,0,0,0,0,0,0],"id":1,"left_children":[1,3,5,7,9,11,13,15,17,19,-1,-1,21,23,25,27,29,31,33,35,-1,37,-1,-1,39,-1,41,43,45,-1,47,49,51,-1,-1,53,55,57,59,-1,61,-1,63,-1,-1,-1,65,-1,-1,-1,67,-1,69,71,73,75,-1,-1,-1,-1,-1,77,-1,-1,79,-1,-1,-1,-1,-1,-1,-1,-1,-1,-1,-1,-1,-1,-1,-1,-1],"loss_changes":[1.9162695E3,5.34093E2,1.7943518E2,1.217171E2,1.8495717E2,2.0434486E2,1.26725586E2,9.72989E1,4.4046875E1,9.9205414E1,0E0,0E0,5.916116E1,9.6397484E1,1.076886E2,8.5459595E1,3.0397797E-1,1.1208569E2,6.008972E1,1.05196526E2,0E0,6.45784E1,0E0,0E0,1.644147E2,0E0,1.7824503E2,1.0291971E2,7.048779E1,0E0,1.6666666E-1,5.5013428E1,6.407089E-1,0E0,0E0,7.713989E1,8.388723E1,8.532172E1,5.9134537E1,0E0,1.0274489E2,0E0,5.456418E1,0E0,0E0,0E0,1.7081108E1,0E0,0E0,0E0,4.9821655E1,0E0,2.1509805E0,1.2118625E2,8.9676834E1,4.4649734E1,0E0,0E0,0E0,0E0,0E0,4.9571808E1,0E0,0E0,5.9239307E1,0E0,0E0,0E0,0E0,0E0,0E0,0E0,0E0,0E0,0E0,0E0,0E0,0E0,0E0,0E0,0E0],"parents":[2147483647,0,0,1,1,2,2,3,3,4,4,5,5,6,6,7,7,8,8,9,9,12,12,13,13,14,14,15,15,16,16,17,17,18,18,19,19,21,21,24,24,26,26,27,27,28,28,30,30,31,31,32,32,35,35,36,36,37,37,38,38,40,40,42,42,46,46,50,50,52,52,53,53,54,54,55,55,61,61,64,64],"right_children":[2,4,6,8,10,12,14,16,18,20,-1,-1,22,24,26,28,30,32,34,36,-1,38,-1,-1,40,-1,42,44,46,-1,48,50,52,-1,-1,54,56,58,60,-1,62,-1,64,-1,-1,-1,66,-1,-1,-1,68,-1,70,72,74,76,-1,-1,-1,-1,-1,78,-1,-1,80,-1,-1,-1,-1,-1,-1,-1,-1,-1,-1,-1,-1,-1,-1,-1,-1],"split_conditions":[4.0816326E-2,7.2789446E-2,5.6668296E-2,3.3781912E-2,2.6819736E-1,2.48E-1,6.122449E-2,5.4347825E-1,5.6E-1,8.235302E-1,-1.9911699E-1,-1.988372E-1,5E-1,7.962873E-2,2.769907E-1,4.4052228E-1,8.604651E-1,5.2E-1,4.68979E-2,7.173913E-1,-1.9815668E-1,3.0831099E-2,-1.9344263E-1,-1.9559228E-1,3.9130434E-1,-1.9988243E-1,2.965315E-1,3.1753786E-2,9.1724773E-4,-1.9798996E-1,1E0,2.6809652E-3,6.873148E-1,-1.8857144E-1,1.9907407E-1,3.2608697E-1,1.761714E-2,3.246916E-1,3.8E-1,-1.944056E-1,2.92E-1,1.9731544E-1,7.264289E-1,-1.9800995E-1,1.9452055E-1,-1.9245283E-1,4.600077E-1,-1E-1,-0E0,-1.9298247E-1,5.3619305E-3,-1.962963E-1,6.976744E-1,4.213271E-3,4.4160005E-1,6.1047983E-1,-1.9375001E-1,-1.9292036E-1,1.9473684E-1,1.9887955E-1,-1.8857144E-1,5.072464E-1,-1.9583334E-1,-1.9906761E-1,4.204649E-1,5.56701E-2,1.9837399E-1,1.0949695E-1,7.10568E-2,1E-1,-1.4666668E-1,1.7058824E-1,-4.7901236E-2,-1.4793389E-1,-1.7434008E-2,-1.8666667E-1,1.7136842E-1,1.9859156E-1,4.7058826E-3,1.9411765E-1,-1.9322035E-1],"split_indices":[3,4,4,4,4,9,3,8,9,7,0,0,9,4,4,8,0,9,4,8,0,2,0,0,8,0,4,4,3,0,1,2,0,0,0,8,3,9,9,0,9,0,4,0,0,0,8,0,0,0,2,0,0,2,7,7,0,0,0,0,0,7,0,0,7,0,0,0,0,0,0,0,0,0,0,0,0,0,0,0,0],"split_type":[0,0,0,0,0,0,0,0,0,0,0,0,0,0,0,0,0,0,0,0,0,0,0,0,0,0,0,0,0,0,0,0,0,0,0,0,0,0,0,0,0,0,0,0,0,0,0,0,0,0,0,0,0,0,0,0,0,0,0,0,0,0,0,0,0,0,0,0,0,0,0,0,0,0,0,0,0,0,0,0,0],"sum_hessian":[1.246E4,9.33E3,3.13E3,6.442E3,2.888E3,4.87E2,2.643E3,4.305E2,6.0115E3,2.6625E3,2.255E2,1.71E2,3.16E2,5.945E2,2.0485E3,3.3E2,1.005E2,5.78E3,2.315E2,2.555E3,1.075E2,2.865E2,2.95E1,1.805E2,4.14E2,1.7E3,3.485E2,1.35E2,1.95E2,9.85E1,2E0,5.7195E3,6.05E1,1.65E1,2.15E2,2.2735E3,2.815E2,9.25E1,1.94E2,1.42E2,2.72E2,7.35E1,2.75E2,9.95E1,3.55E1,2.55E1,1.695E2,1E0,1E0,2.75E1,5.692E3,5.3E1,7.5E0,4.045E2,1.869E3,2.505E2,3.1E1,5.55E1,3.7E1,1.775E2,1.65E1,2.25E2,4.7E1,2.135E2,6.15E1,4.75E1,1.22E2,2.2155E3,3.4765E3,1E0,6.5E0,2.03E2,2.015E2,2.41E2,1.628E3,1.4E1,2.365E2,1.41E2,8.4E1,3.3E1,2.85E1],"tree_param":{"num_deleted":"0","num_feature":"10","num_nodes":"81","size_leaf_vector":"1"}},{"base_weights":[-2.6868568E-3,-1.701572E-1,6.1079514E-1,-3.06347E-1,1.1167094E-1,4.7893745E-1,1.6694058E-1,-3.2048178E-1,8.5581505E-1,-2.954133E-2,5.070195E-1,2.0088865E-1,7.12551E-1,1.6283481E-1,-3.467833E-1,1.8048528E-1,-1.2508945E-1,-5.000324E-1,6.219268E-2,7.351366E-1,1.6852178E-1,1.6660556E-1,-1.4155051E-1,-1.6250975E-1,7.672222E-1,1.6707693E-1,-1.1846038E-1,-3.7525848E-1,4.7748756E-2,7.124142E-1,-8.253901E-1,-1.9855168E-2,1.7117427E-1,8.818698E-1,2.495173E-1,-1.8912245E-1,4.4611958E-1,1.9698337E-1,-6.299784E-1,1.6827016E-1,3.1705895E-1,-4.0933698E-1,8.060725E-1,-3.535584E-1,-8.0977136E-1,-6.674961E-1,7.086453E-1,1.8928234E-1,-1.7385268E-1,-6.275728E-1,-1.8439299E-1,-7.4763805E-2,1.6424777E-1,1.5927714E-1,1.7741059E-1,-1.9392745E-1,8.0588E-1,1.72706E-1,-1.8972977E-1,-1.6540638E-1,5.26015E-1,-1.6711956E-1,-1.5529777E-1,1.6332792E-1,-3.6951292E-1,1.6189495E-1,-1.2672661E-1,1.6439071E-1,6.364328E-2,-7.9455234E-2,-3.0087946E-2,-8.61269E-2,-1.7905684E-1,1.755647E-1,-1.5688895E-1,1.88929E-1,-1.7668675E-1,-1.7838423E-1,1.797158E-1,-7.060583E-3,-1.8825565E-1,9.8717466E-2,-4.6665385E-2,-1.37996E-1,1.6845918E-1,-1.742128E-1,1.6393995E-1,-1.650467E-1,1.6557118E-1,1.6067724E-1,-1.6292906E-1,-1.6299818E-1,1.562197E-1],"categories":[],"categories_nodes":[],"categories_segments":[],"categories_sizes":[],"default_left":[0,0,0,0,0,0,0,0,0,0,0,0,0,0,0,0,0,0,0,0,0,0,0,0,0,0,0,0,0,0,0,0,0,0,0,0,0,0,0,0,0,0,0,0,0,0,0,0,0,0,0,0,0,0,0,0,0,0,0,0,0,0,0,0,0,0,0,0,0,0,0,0,0,0,0,0,0,0,0,0,0,0,0,0,0,0,0,0,0,0,0,0,0],"id":2,"left_children":[1,3,5,7,9,11,-1,13,15,17,19,21,23,25,27,-1,-1,29,31,33,35,-1,37,-1,39,-1,41,43,45,47,49,51,-1,53,55,-1,57,59,61,-1,63,65,67,69,71,73,75,-1,-1,77,-1,79,-1,81,-1,-1,83,-1,85,-1,87,-1,89,-1,91,-1,-1,-1,-1,-1,-1,-1,-1,-1,-1,-1,-1,-1,-1,-1,-1,-1,-1,-1,-1,-1,-1,-1,-1,-1,-1,-1,-1],"loss_changes":[1.2661241E3,3.7160568E2,7.7623535E1,1.0749426E2,1.7613818E2,1.08046814E2,0E0,8.2041016E1,5.998451E0,1.0039636E2,6.399115E1,1.6503777E2,7.605853E1,6.3198875E1,6.873694E1,0E0,0E0,1.5030536E2,1.2679771E2,3.5104584E1,1.0421099E2,0E0,8.1975464E1,0E0,2.8896301E1,0E0,6.380956E1,5.3507935E1,1.9553386E2,3.0740555E1,5.146866E0,8.159622E1,0E0,1.283081E0,7.975336E1,0E0,7.1645546E1,9.920218E1,1.9672546E1,0E0,4.3234104E1,4.9780605E1,1.7873383E-1,4.8207947E1,8.387497E0,3.6596756E1,8.1600945E1,0E0,0E0,4.1728695E1,0E0,5.6665836E1,0E0,6.306412E-1,0E0,0E0,4.96574E0,0E0,7.468555E1,0E0,9.141721E1,0E0,4.0192654E1,0E0,2.8011204E1,0E0,0E0,0E0,0E0,0E0,0E0,0E0,0E0,0E0,0E0,0E0,0E0,0E0,0E0,0E0,0E0,0E0,0E0,0E0,0E0,0E0,0E0,0E0,0E0,0E0,0E0,0E0,0E0],"parents":[2147483647,0,0,1,1,2,2,3,3,4,4,5,5,7,7,8,8,9,9,10,10,11,11,12,12,13,13,14,14,17,17,18,18,19,19,20,20,22,22,24,24,26,26,27,27,28,28,29,29,30,30,31,31,33,33,34,34,36,36,37,37,38,38,40,40,41,41,42,42,43,43,44,44,45,45,46,46,49,49,51,51,53,53,56,56,58,58,60,60,62,62,64,64],"right_children":[2,4,6,8,10,12,-1,14,16,18,20,22,24,26,28,-1,-1,30,32,34,36,-1,38,-1,40,-1,42,44,46,48,50,52,-1,54,56,-1,58,60,62,-1,64,66,68,70,72,74,76,-1,-1,78,-1,80,-1,82,-1,-1,84,-1,86,-1,88,-1,90,-1,92,-1,-1,-1,-1,-1,-1,-1,-1,-1,-1,-1,-1,-1,-1,-1,-1,-1,-1,-1,-1,-1,-1,-1,-1,-1,-1,-1,-1],"split_conditions":[5.102041E-2,7.2789446E-2,1.8367347E-1,2.8461069E-2,1.3214068E-2,4.9398345E-1,1.6694058E-1,3.1753786E-2,6.8210584E-1,5.1020407E-3,4.881823E-1,3.043478E-1,3.1753786E-2,4.4052228E-1,1.7426273E-2,1.8048528E-1,-1.2508945E-1,8.793356E-2,2.2081095E-1,1.4745308E-2,5.631221E-1,1.6660556E-1,1.5241817E-1,-1.6250975E-1,7.032597E-1,1.6707693E-1,5.4347825E-1,1.3404826E-2,4.647087E-1,9.1724773E-4,3.779834E-1,8.1038904E-1,1.7117427E-1,4.6511628E-2,2.0939216E-2,-1.8912245E-1,7.261933E-1,4.494382E-2,4.7559136E-1,1.6827016E-1,3.8873993E-2,9.1724773E-4,7.6744187E-1,6.7086807E-3,4.640938E-2,4.0107537E-2,7.704367E-1,1.8928234E-1,-1.7385268E-1,4.0214476E-3,-1.8439299E-1,1.1587721E-2,1.6424777E-1,4.213271E-3,1.7741059E-1,-1.9392745E-1,8.011725E-2,1.72706E-1,1.7279934E-2,-1.6540638E-1,2.2788204E-2,-1.6711956E-1,7.7747986E-2,1.6332792E-1,4.021448E-2,1.6189495E-1,-1.2672661E-1,1.6439071E-1,6.364328E-2,-7.9455234E-2,-3.0087946E-2,-8.61269E-2,-1.7905684E-1,1.755647E-1,-1.5688895E-1,1.88929E-1,-1.7668675E-1,-1.7838423E-1,1.797158E-1,-7.060583E-3,-1.8825565E-1,9.8717466E-2,-4.6665385E-2,-1.37996E-1,1.6845918E-1,-1.742128E-1,1.6393995E-1,-1.650467E-1,1.6557118E-1,1.6067724E-1,-1.6292906E-1,-1.6299818E-1,1.562197E-1],"split_indices":[3,4,3,6,6,7,0,4,7,3,8,8,4,8,2,0,0,4,4,2,7,0,4,0,7,0,8,2,7,3,7,7,0,0,6,0,8,4,7,0,2,3,0,6,4,4,7,0,0,2,0,6,0,2,0,0,4,0,6,0,2,0,2,0,2,0,0,0,0,0,0,0,0,0,0,0,0,0,0,0,0,0,0,0,0,0,0,0,0,0,0,0,0],"split_type":[0,0,0,0,0,0,0,0,0,0,0,0,0,0,0,0,0,0,0,0,0,0,0,0,0,0,0,0,0,0,0,0,0,0,0,0,0,0,0,0,0,0,0,0,0,0,0,0,0,0,0,0,0,0,0,0,0,0,0,0,0,0,0,0,0,0,0,0,0,0,0,0,0,0,0,0,0,0,0,0,0,0,0,0,0,0,0,0,0,0,0,0,0],"sum_hessian":[1.2321561E4,9.679847E3,2.6417139E3,6.5261035E3,3.1537427E3,1.6645885E3,9.7712537E2,6.4483994E3,7.770426E1,2.3244214E3,8.2932135E2,7.608629E2,9.037256E2,3.3253546E2,6.115864E3,7.571256E1,1.9916989E0,3.78532E2,1.9458893E3,4.947395E2,3.3458188E2,2.6684225E2,4.9402066E2,3.0795547E1,8.7293005E2,9.7486E1,2.3504947E2,5.704214E3,4.116501E2,7.983541E1,2.986966E2,1.7644603E3,1.8142902E2,3.793119E2,1.1542762E2,6.6256424E1,2.6832544E2,2.9213553E2,2.0188513E2,7.4876215E2,1.24167915E2,1.7922038E2,5.5829086E1,5.4346167E3,2.6959714E2,1.9769154E2,2.1395854E2,6.98964E1,9.939013E0,1.00446724E2,1.9824986E2,1.6571863E3,1.0727399E2,2.9273746E0,3.7638452E2,3.5936768E1,7.949085E1,1.6177098E2,1.0655446E2,7.0672966E1,2.2146255E2,1.403352E2,6.1549927E1,7.1761536E1,5.2406376E1,2.744996E1,1.5177042E2,5.340575E1,2.4233356E0,4.471293E3,9.633239E2,5.072675E1,2.188704E2,1.3450832E1,1.842407E2,1.8669127E2,2.7267271E1,8.5971054E1,1.4475676E1,1.5860009E3,7.118541E1,1.4421452E0,1.4852294E0,1.4626365E0,7.802822E1,6.369759E1,4.2856865E1,4.0120674E1,1.8134189E2,2.4992563E1,3.6557365E1,3.7989723E1,1.4416653E1],"tree_param":{"num_deleted":"0","num_feature":"10","num_nodes":"93","size_leaf_vector":"1"}},{"base_weights":[3.786247E-4,1.729452E-1,-6.194426E-1,2.4818587E-1,-4.264776E-1,-2.8481153E-1,-7.2474575E-1,2.8311732E-1,-1.5357642E-1,-6.430634E-1,2.2790165E-1,-4.8555127E-1,4.3265396E-1,-4.3514287E-1,-7.980928E-1,1.8908545E-1,3.8554725E-1,-2.737181E-1,1.9164313E-1,-7.0689386E-1,1.6300085E-1,7.5362307E-1,-1.6580558E-1,-6.8042403E-1,3.3488822E-1,-1.6231145E-1,1.6632041E-1,-1.6537E-1,2.0974521E-1,-6.6591877E-1,-1.6784099E-1,2.7748564E-1,-2.200711E-1,-2.045661E-1,4.0070307E-1,6.151019E-1,-4.2863458E-1,-1.4538538E-1,-7.9181266E-1,1.776556E-1,-1.5616909E-1,-1.6460584E-1,-4.083379E-1,-7.3175764E-1,1.6478747E-1,-1.6430332E-1,1.6698335E-1,-1.6661005E-1,1.1070134E-1,3.3886304E-1,-6.1458904E-1,-4.7178304E-1,5.660286E-1,-9.140642E-1,4.164692E-1,1.8338518E-1,-1.4658217E-1,-8.880572E-1,-5.8574453E-2,1.6957222E-1,-1.7255883E-1,-8.6723727E-1,-6.144536E-1,1.628119E-1,-1.6548724E-1,-1.6314507E-1,1.1228247E-1,-1.5657058E-1,1.6314626E-1,1.5712926E-1,5.5590805E-2,-1.9971266E-1,3.529563E-2,4.5584798E-2,-1.437452E-1,-1.7706881E-1,1.4303382E-1,-1.8639395E-1,-7.014208E-2,9.6318156E-2,4.455032E-2,-1.8611674E-1,-8.655738E-2,-1.6857186E-1,4.809639E-2,-1.7382622E-1,-5.5333007E-2,1.7812824E-1,-1.7865416E-1],"categories":[],"categories_nodes":[],"categories_segments":[],"categories_sizes":[],"default_left":[0,0,0,0,0,0,0,0,0,0,0,0,0,0,0,0,0,0,0,0,0,0,0,0,0,0,0,0,0,0,0,0,0,0,0,0,0,0,0,0,0,0,0,0,0,0,0,0,0,0,0,0,0,0,0,0,0,0,0,0,0,0,0,0,0,0,0,0,0,0,0,0,0,0,0,0,0,0,0,0,0,0,0,0,0,0,0,0,0],"id":3,"left_children":[1,3,5,7,9,11,13,15,17,19,21,23,25,27,29,31,33,35,-1,37,-1,39,-1,41,43,-1,-1,-1,45,47,-1,49,51,-1,53,55,57,59,61,-1,-1,-1,63,65,-1,-1,-1,-1,67,69,71,73,75,77,79,-1,-1,81,83,-1,-1,85,87,-1,-1,-1,-1,-1,-1,-1,-1,-1,-1,-1,-1,-1,-1,-1,-1,-1,-1,-1,-1,-1,-1,-1,-1,-1,-1],"loss_changes":[1.3114061E3,4.326481E2,9.388281E1,1.1963672E2,1.517877E2,9.249675E1,4.278076E1,7.544238E1,9.139848E1,7.5415985E1,1.4887384E2,8.03536E1,7.047322E1,1.0437535E2,8.237793E0,1.4798299E2,8.0488464E1,8.51562E1,0E0,3.6645386E1,0E0,3.76174E1,0E0,1.5389862E1,5.1128807E1,0E0,0E0,0E0,1.01696495E2,5.0572617E1,0E0,1.8437167E2,1.4415186E2,0E0,7.7334045E1,3.8070797E1,8.931002E1,7.376979E1,8.422424E0,0E0,0E0,0E0,7.309284E1,3.8217278E0,0E0,0E0,0E0,0E0,4.4584198E1,8.543872E1,6.60528E1,9.5429245E1,3.8907837E1,1.2003708E-1,4.6178955E1,0E0,0E0,4.1359406E0,6.873485E1,0E0,0E0,2.8216553E-1,8.605759E1,0E0,0E0,0E0,0E0,0E0,0E0,0E0,0E0,0E0,0E0,0E0,0E0,0E0,0E0,0E0,0E0,0E0,0E0,0E0,0E0,0E0,0E0,0E0,0E0,0E0,0E0],"parents":[2147483647,0,0,1,1,2,2,3,3,4,4,5,5,6,6,7,7,8,8,9,9,10,10,11,11,12,12,13,13,14,14,15,15,16,16,17,17,19,19,21,21,23,23,24,24,28,28,29,29,31,31,32,32,34,34,35,35,36,36,37,37,38,38,42,42,43,43,48,48,49,49,50,50,51,51,52,52,53,53,54,54,57,57,58,58,61,61,62,62],"right_children":[2,4,6,8,10,12,14,16,18,20,22,24,26,28,30,32,34,36,-1,38,-1,40,-1,42,44,-1,-1,-1,46,48,-1,50,52,-1,54,56,58,60,62,-1,-1,-1,64,66,-1,-1,-1,-1,68,70,72,74,76,78,80,-1,-1,82,84,-1,-1,86,88,-1,-1,-1,-1,-1,-1,-1,-1,-1,-1,-1,-1,-1,-1,-1,-1,-1,-1,-1,-1,-1,-1,-1,-1,-1,-1],"split_conditions":[5.102041E-2,2.964824E-2,1.2060301E-2,1.7426273E-2,6.6376334E-1,1.4230534E-2,1.1181135E-2,5.587982E-1,1.50437085E-2,2.6809651E-2,1.6466761E-2,5.587982E-1,1.6342624E-1,9.351494E-3,3.2608697E-1,6.911974E-3,6.098801E-4,1.9565217E-1,1.9164313E-1,3.7730068E-3,1.6300085E-1,7.826087E-1,-1.6580558E-1,6.568365E-2,2.9490616E-2,-1.6231145E-1,1.6632041E-1,-1.6537E-1,2.1105528E-2,3.043478E-1,-1.6784099E-1,5.4347825E-1,1.8499695E-2,-2.045661E-1,2.2197036E-1,4.0816326E-2,2.010724E-2,1.6342624E-1,3.8625736E-2,1.776556E-1,-1.5616909E-1,-1.6460584E-1,9.2493296E-2,2.5547068E-3,1.6478747E-1,-1.6430332E-1,1.6698335E-1,-1.6661005E-1,2.4120603E-2,2.5125628E-3,4.675747E-3,7.5376886E-3,1.6342624E-1,7.1059436E-1,4.0173802E-1,1.8338518E-1,-1.4658217E-1,6.863561E-1,4.347826E-1,1.6957222E-1,-1.7255883E-1,8.604651E-1,4.5741003E-2,1.628119E-1,-1.6548724E-1,-1.6314507E-1,1.1228247E-1,-1.5657058E-1,1.6314626E-1,1.5712926E-1,5.5590805E-2,-1.9971266E-1,3.529563E-2,4.5584798E-2,-1.437452E-1,-1.7706881E-1,1.4303382E-1,-1.8639395E-1,-7.014208E-2,9.6318156E-2,4.455032E-2,-1.8611674E-1,-8.655738E-2,-1.6857186E-1,4.809639E-2,-1.7382622E-1,-5.5333007E-2,1.7812824E-1,-1.7865416E-1],"split_indices":[3,5,5,2,8,6,6,8,6,2,6,8,9,6,8,6,6,8,0,2,0,8,0,2,2,0,0,0,5,8,0,8,6,0,9,3,2,9,6,0,0,0,2,6,0,0,0,0,5,5,6,5,9,0,9,0,0,8,8,0,0,0,6,0,0,0,0,0,0,0,0,0,0,0,0,0,0,0,0,0,0,0,0,0,0,0,0,0,0],"split_type":[0,0,0,0,0,0,0,0,0,0,0,0,0,0,0,0,0,0,0,0,0,0,0,0,0,0,0,0,0,0,0,0,0,0,0,0,0,0,0,0,0,0,0,0,0,0,0,0,0,0,0,0,0,0,0,0,0,0,0,0,0,0,0,0,0,0,0,0,0,0,0,0,0,0,0,0,0,0,0,0,0,0,0,0,0,0,0,0,0],"sum_hessian":[1.2258664E4,9.58953E3,2.6691333E3,8.520596E3,1.0689352E3,6.397736E2,2.0293597E3,7.8392983E3,6.812973E2,8.031324E2,2.6580273E2,5.0015765E2,1.3961594E2,4.1150565E2,1.6178541E3,4.0886836E3,3.7506145E3,6.155355E2,6.576175E1,7.699415E2,3.319087E1,1.7770064E2,8.8102104E1,4.042984E2,9.585926E1,3.364671E1,1.0596923E2,2.5583093E2,1.5567471E2,3.8791608E2,1.2299381E3,3.3625176E3,7.26166E2,3.9223454E1,3.711391E3,9.0919914E1,5.2461566E2,1.0150068E2,6.6844086E2,1.6375195E2,1.3948679E1,2.6393866E2,1.4035974E2,2.9978357E1,6.5880905E1,5.8636253E1,9.703845E1,3.191592E2,6.875687E1,3.1466396E3,2.1587804E2,5.503438E2,1.7582222E2,4.3302917E1,3.6680881E3,7.454816E1,1.6371754E1,2.3342418E2,2.9119147E2,4.2490753E1,5.900993E1,4.6626495E2,2.0217592E2,3.5595325E1,1.0476442E2,2.8497192E1,1.4811647E0,3.027543E1,3.8481434E1,3.760822E2,2.7705574E3,1.451579E2,7.072014E1,1.4358267E2,4.067611E2,1.5923648E1,1.5989856E2,4.133482E1,1.9680959E0,2.7441184E3,9.239697E2,2.1252805E2,2.0896135E1,7.988145E1,2.1131001E2,4.6430435E2,1.9606014E0,3.1256186E1,1.7091974E2],"tree_param":{"num_deleted":"0","num_feature":"10","num_nodes":"89","size_leaf_vector":"1"}},{"base_weights":[-4.1160057E-3,-1.455326E-1,5.447141E-1,-2.6430014E-1,1.0377219E-1,-1.8372022E-2,5.9106284E-1,-2.911772E-1,1.0402704E-1,4.9014855E-2,1.500688E-1,1.4608757E-1,-4.3048108E-1,2.4460655E-1,6.427092E-1,2.8737697E-1,-3.0984393E-1,-4.8098764E-1,6.171608E-1,1.640894E-2,1.546515E-1,1.3860816E-1,-5.716444E-1,-6.0129102E-2,1.4821692E-1,7.069361E-1,2.9870152E-1,-3.1322667E-1,1.0559262E0,1.1341766E-1,-3.3403814E-1,-5.8994967E-1,1.9594452E-1,8.2153016E-1,-1.6252889E-1,9.031749E-2,-3.9499107E-1,-1.4728841E-1,1.3741326E-1,1.4640872E-1,-5.382164E-1,3.238915E-1,1.479338E-1,-1.4647433E-1,5.648477E-1,1.9040821E-1,-5.594053E-1,8.3290744E-1,2.3065834E-1,-1.63336E-1,1.603977E-1,-1.2848747E-1,-3.7315187E-1,1.4908734E-1,-6.82808E-1,7.190601E-1,1.8048047E-1,5.4741994E-2,8.6281705E-1,1.887127E-1,-5.125649E-1,-1.4839646E-1,1.7269193E-1,1.4669947E-1,-1.4521544E-1,1.4734665E-1,5.814347E-3,1.4982246E-1,-1.6339812E-1,1.718507E-1,4.0944926E-2,1.5918888E-1,-8.2696E-2,-1.20478824E-1,4.4775393E-2,-1.0761674E-1,-6.0475558E-2,-1.6238551E-1,-5.556489E-2,1.5512392E-1,-1.5383312E-1,1.8906992E-2,-1.3559423E-1,1.8017283E-1,-1.3325684E-1,-1.4593606E-1,-9.4986325E-3,-1.4351653E-1,1.4363769E-1],"categories":[],"categories_nodes":[],"categories_segments":[],"categories_sizes":[],"default_left":[0,0,0,0,0,0,0,0,0,0,0,0,0,0,0,0,0,0,0,0,0,0,0,0,0,0,0,0,0,0,0,0,0,0,0,0,0,0,0,0,0,0,0,0,0,0,0,0,0,0,0,0,0,0,0,0,0,0,0,0,0,0,0,0,0,0,0,0,0,0,0,0,0,0,0,0,0,0,0,0,0,0,0,0,0,0,0,0,0],"id":4,"left_children":[1,3,5,7,9,11,13,15,17,19,-1,-1,21,23,25,27,29,31,33,35,-1,-1,37,39,-1,41,43,45,47,49,51,53,-1,55,-1,57,59,-1,-1,-1,61,63,-1,-1,65,-1,67,69,-1,71,-1,73,75,-1,77,79,-1,81,83,-1,85,-1,-1,-1,-1,-1,87,-1,-1,-1,-1,-1,-1,-1,-1,-1,-1,-1,-1,-1,-1,-1,-1,-1,-1,-1,-1,-1,-1],"loss_changes":[9.1638696E2,2.779997E2,6.3142883E1,6.298172E1,1.07238525E2,5.7385323E1,3.9835205E1,6.409689E1,1.3033977E2,6.597794E1,0E0,0E0,1.9415213E1,4.4157875E1,4.2751526E1,8.607975E1,5.8839233E1,3.288542E1,6.8231E1,8.1375244E1,0E0,0E0,2.2718075E1,6.917092E1,0E0,2.029596E1,8.483942E1,3.3253246E1,8.138962E-1,5.94389E1,4.3623047E1,2.4009575E1,0E0,1.0316925E0,0E0,6.2296707E1,6.46289E1,0E0,0E0,0E0,3.3151367E1,5.6752144E1,0E0,0E0,2.3547272E1,0E0,3.046442E1,2.9467773E-1,0E0,5.3798325E1,0E0,1.4539658E2,5.3099915E1,0E0,9.067551E0,8.540501E0,0E0,6.332648E1,6.4066315E0,0E0,3.7863266E1,0E0,0E0,0E0,0E0,0E0,3.0737597E1,0E0,0E0,0E0,0E0,0E0,0E0,0E0,0E0,0E0,0E0,0E0,0E0,0E0,0E0,0E0,0E0,0E0,0E0,0E0,0E0,0E0,0E0],"parents":[2147483647,0,0,1,1,2,2,3,3,4,4,5,5,6,6,7,7,8,8,9,9,12,12,13,13,14,14,15,15,16,16,17,17,18,18,19,19,22,22,23,23,25,25,26,26,27,27,28,28,29,29,30,30,31,31,33,33,35,35,36,36,40,40,41,41,44,44,46,46,47,47,49,49,51,51,52,52,54,54,55,55,57,57,58,58,60,60,66,66],"right_children":[2,4,6,8,10,12,14,16,18,20,-1,-1,22,24,26,28,30,32,34,36,-1,-1,38,40,-1,42,44,46,48,50,52,54,-1,56,-1,58,60,-1,-1,-1,62,64,-1,-1,66,-1,68,70,-1,72,-1,74,76,-1,78,80,-1,82,84,-1,86,-1,-1,-1,-1,-1,88,-1,-1,-1,-1,-1,-1,-1,-1,-1,-1,-1,-1,-1,-1,-1,-1,-1,-1,-1,-1,-1,-1],"split_conditions":[5.102041E-2,7.2789446E-2,4.1910946E-2,1.7426273E-2,2.6819736E-1,2.826087E-1,6.122449E-2,2.6086956E-1,4.647087E-1,8.235302E-1,1.500688E-1,1.4608757E-1,8.822795E-3,2.2197036E-1,2.769907E-1,2.0289855E-1,3.3781912E-2,7.1812406E-2,7.704367E-1,6.863561E-1,1.546515E-1,1.3860816E-1,6.836461E-2,1.6342624E-1,1.4821692E-1,5.6668296E-2,2.965315E-1,8.8E-2,2.4637681E-1,5.4347825E-1,9.1724773E-4,4.0107537E-2,1.9594452E-1,6.2042013E-2,-1.6252889E-1,3.8E-1,6.1047983E-1,-1.4728841E-1,1.3741326E-1,1.4640872E-1,4.7869042E-1,5.3737175E-2,1.479338E-1,-1.4647433E-1,7.264289E-1,1.9040821E-1,9.1724773E-4,6.873148E-1,2.3065834E-1,4.4052228E-1,1.603977E-1,5.1294576E-2,5.3619305E-3,1.4908734E-1,4.5918368E-2,6.8210584E-1,1.8048047E-1,3.246916E-1,6.1047983E-1,1.887127E-1,1.5306123E-2,-1.4839646E-1,1.7269193E-1,1.4669947E-1,-1.4521544E-1,1.4734665E-1,4.204649E-1,1.4982246E-1,-1.6339812E-1,1.718507E-1,4.0944926E-2,1.5918888E-1,-8.2696E-2,-1.20478824E-1,4.4775393E-2,-1.0761674E-1,-6.0475558E-2,-1.6238551E-1,-5.556489E-2,1.5512392E-1,-1.5383312E-1,1.8906992E-2,-1.3559423E-1,1.8017283E-1,-1.3325684E-1,-1.4593606E-1,-9.4986325E-3,-1.4351653E-1,1.4363769E-1],"split_indices":[3,4,4,2,4,8,3,7,7,7,0,0,2,9,4,7,4,4,7,8,0,0,2,9,0,4,4,9,7,8,3,4,0,4,0,9,7,0,0,0,7,4,0,0,4,0,3,0,0,8,0,4,2,0,3,7,0,9,7,0,3,0,0,0,0,0,7,0,0,0,0,0,0,0,0,0,0,0,0,0,0,0,0,0,0,0,0,0,0],"split_type":[0,0,0,0,0,0,0,0,0,0,0,0,0,0,0,0,0,0,0,0,0,0,0,0,0,0,0,0,0,0,0,0,0,0,0,0,0,0,0,0,0,0,0,0,0,0,0,0,0,0,0,0,0,0,0,0,0,0,0,0,0,0,0,0,0,0,0,0,0,0,0,0,0,0,0,0,0,0,0,0,0,0,0,0,0,0,0,0,0],"sum_hessian":[1.1805007E4,9.387001E3,2.4180059E3,6.358015E3,3.0289863E3,1.8394002E2,2.2340657E3,5.925814E3,4.32201E2,2.7934854E3,2.3550089E2,6.502179E1,1.18918236E2,2.9057236E2,1.9434934E3,1.8476736E2,5.741047E3,2.0198459E2,2.302164E2,2.6741174E3,1.19368004E2,1.2837198E1,1.0608104E2,1.8059993E2,1.0997242E2,1.6368376E3,3.066558E2,1.04048386E2,8.071898E1,3.1022226E2,5.430824E3,1.8851814E2,1.3466439E1,2.0179782E2,2.8418575E1,2.2675327E3,4.0658475E2,9.416707E1,1.191397E1,6.777241E1,1.1282752E2,1.2972089E2,1.5071167E3,6.255615E1,2.4409964E2,1.6479996E1,8.756839E1,2.7434277E1,5.3284702E1,2.218272E2,8.839506E1,8.68894E2,4.5619307E3,1.1799728E1,1.7671841E2,9.337592E1,1.084219E2,2.1687283E3,9.880439E1,3.226207E1,3.7432266E2,9.8918144E1,1.390938E1,9.353365E1,3.618723E1,1.8645319E2,5.7646458E1,1.4088982E1,7.347941E1,2.5976963E1,1.4573143E0,4.5428997E1,1.763982E2,3.7023843E2,4.9865558E2,1.3678026E3,3.194128E3,1.3323477E2,4.3483646E1,9.0418434E1,2.957486E0,2.0578398E3,1.1088838E2,9.68065E1,1.9978828E0,2.5480147E2,1.19521194E2,2.8598314E1,2.9048141E1],"tree_param":{"num_deleted":"0","num_feature":"10","num_nodes":"89","size_leaf_vector":"1"}},{"base_weights":[4.5402125E-3,1.4555569E-1,-5.4747456E-1,2.3877577E-1,-1.2562263E-1,-4.355792E-1,-1.4791356E-1,2.6241767E-1,-4.152394E-2,-5.0061846E-1,3.0158442E-2,-1.9416498E-1,-6.2972265E-1,2.4203572E-1,6.881722E-1,-3.691205E-1,3.1201458E-1,4.3547425E-1,-6.9432676E-1,7.845962E-2,-7.5384295E-1,-1.4763594E-1,1.1776756E-1,-1.0461757E-1,-1.4875665E-1,2.6978615E-1,-7.4899144E-2,-7.9921335E-1,1.722236E-1,1.5576962E-1,-5.4994255E-1,-1.4011648E-1,1.725994E-1,1.689531E-1,-1.5373065E-1,-8.0909395E-1,-3.0500975E-1,-6.9834536E-1,1.297584E-1,-1.5622205E-1,-4.8520243E-1,-1.9158298E-1,5.340118E-1,-1.4589413E-1,3.3137444E-1,-4.7389305E-1,2.8892425E-1,3.671978E-1,-4.5372617E-1,1.3116686E-1,-9.7294086E-1,-8.2398564E-1,-3.901359E-2,-7.9085654E-1,3.3977392E-1,-8.57993E-1,-6.5353936E-1,1.0331117E-1,-1.5022737E-1,-8.240451E-1,1.559927E-1,-1.5081511E-1,1.5613258E-1,1.0100963E-1,-1.3490643E-1,1.9983338E-1,-1.4544447E-1,1.4765382E-1,-1.4261787E-1,-1.3776627E-1,1.4662005E-1,6.6817485E-2,-2.0242956E-1,5.0046008E-2,1.2120771E-1,-1.4414568E-1,1.6071121E-1,-1.522194E-1,7.442586E-2,-1.3505213E-1,-2.2873183E-1,1.2189364E-1,-1.6913763E-1,1.5897149E-1,-1.1703123E-1,-1.3165087E-1,-1.8227005E-1,1.6733205E-1,-1.7242143E-1,-1.8256116E-1,-1.5165E-1,-1.4929734E-1,-8.183136E-2,1.4980148E-1,-1.554964E-1,1.367669E-1,-1.763353E-1,1.6242588E-1,2.4206351E-2,1.482827E-1,-1.423712E-1],"categories":[],"categories_nodes":[],"categories_segments":[],"categories_sizes":[],"default_left":[0,0,0,0,0,0,0,0,0,0,0,0,0,0,0,0,0,0,0,0,0,0,0,0,0,0,0,0,0,0,0,0,0,0,0,0,0,0,0,0,0,0,0,0,0,0,0,0,0,0,0,0,0,0,0,0,0,0,0,0,0,0,0,0,0,0,0,0,0,0,0,0,0,0,0,0,0,0,0,0,0,0,0,0,0,0,0,0,0,0,0,0,0,0,0,0,0,0,0,0,0],"id":5,"left_children":[1,3,5,7,9,11,-1,13,15,17,19,21,23,25,27,29,31,33,35,37,39,-1,41,43,-1,45,47,49,-1,-1,51,53,-1,-1,-1,55,57,59,61,-1,63,65,67,-1,69,71,73,75,77,-1,79,81,83,85,87,89,91,93,-1,95,-1,-1,97,-1,-1,99,-1,-1,-1,-1,-1,-1,-1,-1,-1,-1,-1,-1,-1,-1,-1,-1,-1,-1,-1,-1,-1,-1,-1,-1,-1,-1,-1,-1,-1,-1,-1,-1,-1,-1,-1],"loss_changes":[9.177033E2,2.3741136E2,5.1239197E1,4.6322235E1,1.4038525E2,7.103784E1,0E0,5.5761383E1,6.3173103E1,1.2819289E2,6.438179E1,1.1517392E2,5.029779E1,5.412854E1,7.6290405E1,5.9184284E1,6.54896E1,6.0548943E1,2.5880585E1,6.388607E1,3.4376144E-1,0E0,5.571651E1,4.1448715E1,0E0,8.0651276E1,8.3250206E1,8.50779E0,0E0,0E0,3.42891E1,4.554695E1,0E0,0E0,0E0,2.8699036E0,2.4622093E1,1.9100445E1,3.514379E1,0E0,2.5402048E0,5.224563E1,4.749909E1,0E0,3.7300674E1,6.2227097E1,6.752893E1,1.0951848E2,6.821369E1,0E0,6.615715E-1,5.47731E0,3.991522E1,3.8817596E-1,5.097526E1,1.1664276E0,2.2401123E0,4.109233E1,0E0,8.600594E0,0E0,0E0,3.351704E1,0E0,0E0,7.180838E1,0E0,0E0,0E0,0E0,0E0,0E0,0E0,0E0,0E0,0E0,0E0,0E0,0E0,0E0,0E0,0E0,0E0,0E0,0E0,0E0,0E0,0E0,0E0,0E0,0E0,0E0,0E0,0E0,0E0,0E0,0E0,0E0,0E0,0E0,0E0],"parents":[2147483647,0,0,1,1,2,2,3,3,4,4,5,5,7,7,8,8,9,9,10,10,11,11,12,12,13,13,14,14,15,15,16,16,17,17,18,18,19,19,20,20,22,22,23,23,25,25,26,26,27,27,30,30,31,31,35,35,36,36,37,37,38,38,40,40,41,41,42,42,44,44,45,45,46,46,47,47,48,48,50,50,51,51,52,52,53,53,54,54,55,55,56,56,57,57,59,59,62,62,65,65],"right_children":[2,4,6,8,10,12,-1,14,16,18,20,22,24,26,28,30,32,34,36,38,40,-1,42,44,-1,46,48,50,-1,-1,52,54,-1,-1,-1,56,58,60,62,-1,64,66,68,-1,70,72,74,76,78,-1,80,82,84,86,88,90,92,94,-1,96,-1,-1,98,-1,-1,100,-1,-1,-1,-1,-1,-1,-1,-1,-1,-1,-1,-1,-1,-1,-1,-1,-1,-1,-1,-1,-1,-1,-1,-1,-1,-1,-1,-1,-1,-1,-1,-1,-1,-1,-1],"split_conditions":[5.102041E-2,7.7251475E-3,1.8367347E-1,1.4745308E-2,2.2197036E-1,4.9398345E-1,-1.4791356E-1,2.4894917E-2,2.010724E-2,8.944907E-3,4.5741003E-2,3.043478E-1,4.8790406E-3,1.5306123E-2,1.2064343E-2,2.0289855E-1,6.302094E-3,6.389641E-3,4.600077E-1,8.335028E-3,7.246377E-1,-1.4763594E-1,5.0938338E-2,6.3784397E-1,-1.4875665E-1,2.6086956E-1,5.109032E-1,3.1285458E-3,1.722236E-1,1.5576962E-1,6.5474063E-1,2.2197036E-1,1.725994E-1,1.689531E-1,-1.5373065E-1,2.6047818E-2,2.0532629E-2,2.92E-1,3.5844645E-1,-1.5622205E-1,5.4052738E-3,3.0831099E-2,3.9130434E-1,-1.4589413E-1,2.9490616E-2,1.9565217E-1,6.9269175E-3,2.2197036E-1,7.032597E-1,1.3116686E-1,1.0723861E-2,1.608579E-2,6.909705E-1,4.1304347E-1,2.2788204E-2,1.8499695E-2,3.5844645E-1,6.0490406E-1,-1.5022737E-1,5.3619305E-3,1.559927E-1,-1.5081511E-1,3.5770544E-1,1.0100963E-1,-1.3490643E-1,2.2197036E-1,-1.4544447E-1,1.4765382E-1,-1.4261787E-1,-1.3776627E-1,1.4662005E-1,6.6817485E-2,-2.0242956E-1,5.0046008E-2,1.2120771E-1,-1.4414568E-1,1.6071121E-1,-1.522194E-1,7.442586E-2,-1.3505213E-1,-2.2873183E-1,1.2189364E-1,-1.6913763E-1,1.5897149E-1,-1.1703123E-1,-1.3165087E-1,-1.8227005E-1,1.6733205E-1,-1.7242143E-1,-1.8256116E-1,-1.5165E-1,-1.4929734E-1,-8.183136E-2,1.4980148E-1,-1.554964E-1,1.367669E-1,-1.763353E-1,1.6242588E-1,2.4206351E-2,1.482827E-1,-1.423712E-1],"split_indices":[3,6,3,2,9,7,0,3,2,6,6,8,6,3,2,7,6,2,8,6,7,0,2,7,0,7,7,6,0,0,7,9,0,0,0,3,6,9,8,0,2,2,8,0,2,8,2,9,7,0,2,2,7,8,2,6,8,7,0,2,0,0,7,0,0,9,0,0,0,0,0,0,0,0,0,0,0,0,0,0,0,0,0,0,0,0,0,0,0,0,0,0,0,0,0,0,0,0,0,0,0],"split_type":[0,0,0,0,0,0,0,0,0,0,0,0,0,0,0,0,0,0,0,0,0,0,0,0,0,0,0,0,0,0,0,0,0,0,0,0,0,0,0,0,0,0,0,0,0,0,0,0,0,0,0,0,0,0,0,0,0,0,0,0,0,0,0,0,0,0,0,0,0,0,0,0,0,0,0,0,0,0,0,0,0,0,0,0,0,0,0,0,0,0,0,0,0,0,0,0,0,0,0,0,0],"sum_hessian":[1.1787189E4,9.389358E3,2.3978315E3,6.9874697E3,2.4018887E3,1.5172771E3,8.805543E2,6.4440127E3,5.434571E2,7.042957E2,1.6975929E3,6.771955E2,8.4008167E2,6.151112E3,2.92901E2,2.8205484E2,2.6140228E2,1.2053995E2,5.837558E2,1.5999238E3,9.7669044E1,2.4629211E2,4.3090338E2,1.5025664E2,6.89825E2,5.656026E3,4.9508585E2,3.0132372E1,2.6276865E2,3.793202E1,2.4412282E2,1.4399062E2,1.1741167E2,9.018416E1,3.0355782E1,4.5001663E2,1.3373915E2,9.832958E1,1.5015942E3,8.693719E1,1.0731858E1,2.4750139E2,1.83402E2,6.147666E1,8.8779976E1,1.4130638E2,5.514719E3,2.2847856E2,2.6660727E2,2.9179695E0,2.7214401E1,1.5849782E2,8.5625E1,6.084105E1,8.314956E1,3.3895078E2,1.1106586E2,7.022952E1,6.3509632E1,9.1031784E1,7.297804E0,4.271068E1,1.4588835E3,1.4548743E0,9.276984E0,1.4336494E2,1.04136444E2,1.5794145E2,2.5460543E1,2.4880312E1,6.3899662E1,5.664909E1,8.4657295E1,4.9165874E3,5.981319E2,6.52202E1,1.6325836E2,1.9435115E2,7.225613E1,1.1725001E1,1.54894E1,1.9599452E0,1.5653787E2,3.3706E1,5.1918995E1,3.2042046E1,2.8799004E1,5.9043457E1,2.4106104E1,2.1348218E2,1.25468605E2,7.8974495E1,3.209137E1,4.060917E1,2.962035E1,2.9511662E0,8.808061E1,7.297231E1,1.3859113E3,9.005526E1,5.3309685E1],"tree_param":{"num_deleted":"0","num_feature":"10","num_nodes":"101","size_leaf_vector":"1"}},{"base_weights":[-7.2144164E-4,-1.1769408E-1,5.000007E-1,-1.7318097E-1,3.6518916E-1,2.37281E-1,5.848141E-1,-2.410552E-1,2.3511194E-3,5.478455E-1,-1.9097641E-1,3.9446953E-1,-3.3453798E-1,3.7989968E-1,1.3539106E-1,1.5800146E-2,-2.840219E-1,-7.717638E-2,3.2514703E-1,-3.450675E-1,6.766818E-1,-6.4429194E-1,1.4543115E-1,5.6356245E-1,-3.1234673E-1,1.3122548E-1,-1.319581E-1,1.3543278E-1,-1.2149558E-1,-3.351925E-1,3.0471125E-1,-1.5714307E-1,-2.7037257E-1,-1.1109144E-1,1.4448978E-1,8.663537E-1,-2.6709104E-2,1.3397531E-1,-1.4720461E-1,7.684557E-1,4.8877683E-1,-1.533234E-1,1.3272832E-1,1.3422379E-1,-3.0844656E-1,1.2532137E-1,-4.5969015E-1,1.3412985E-1,-1.3533661E-1,1.6224788E-1,-5.964528E-1,1.0497806E0,-1.4209266E-1,-1.5281856E-1,-3.2523647E-1,-4.4918135E-2,-4.7165903E-1,8.9322054E-1,-1.4884754E-1,-3.5499722E-1,1.7104153E-1,6.8505585E-1,8.047154E-1,-1.538472E-1,1.4079031E-1,-1.3131037E-1,1.2316867E-1,-1.3437681E-1,5.124096E-1,-4.40598E-2,-1.582397E-1,-1.1610943E-1,2.1430615E-1,2.2796993E-1,-7.4043125E-2,9.999297E-2,-5.150467E-2,1.9367148E-1,-6.9324784E-2,-2.2627786E-2,1.579683E-1,1.6742675E-1,-1.287537E-1,1.3670225E-1,1.9254117E-1,-1.2982434E-1,1.4930406E-1,-1.1311807E-1,1.438456E-1,1.7421617E-1,1.5082757E-1,1.2341414E-1,3.2413833E-2],"categories":[],"categories_nodes":[],"categories_segments":[],"categories_sizes":[],"default_left":[0,0,0,0,0,0,0,0,0,0,0,0,0,0,0,0,0,0,0,0,0,0,0,0,0,0,0,0,0,0,0,0,0,0,0,0,0,0,0,0,0,0,0,0,0,0,0,0,0,0,0,0,0,0,0,0,0,0,0,0,0,0,0,0,0,0,0,0,0,0,0,0,0,0,0,0,0,0,0,0,0,0,0,0,0,0,0,0,0,0,0,0,0],"id":6,"left_children":[1,3,5,7,9,11,13,15,17,19,21,23,25,27,-1,29,31,33,35,37,39,41,-1,43,45,-1,-1,-1,47,49,51,-1,53,55,-1,57,59,-1,-1,61,63,-1,-1,-1,65,-1,67,-1,-1,-1,69,71,73,75,77,79,81,83,-1,85,-1,87,89,-1,-1,-1,-1,-1,91,-1,-1,-1,-1,-1,-1,-1,-1,-1,-1,-1,-1,-1,-1,-1,-1,-1,-1,-1,-1,-1,-1,-1,-1],"loss_changes":[6.635847E2,2.4613986E2,4.7667236E1,9.815195E1,9.629543E1,4.734552E1,3.0352966E1,6.55708E1,5.9023533E1,8.226193E1,9.820775E1,4.9474014E1,3.7101448E1,7.537309E1,0E0,8.653399E1,3.4640472E1,5.0108738E1,8.656948E1,3.6432175E1,1.0376007E1,2.5746613E1,0E0,3.1458252E1,1.1393428E1,0E0,0E0,0E0,8.3515076E1,1.158876E2,1.5595903E2,0E0,3.1916382E1,4.2224304E1,0E0,8.414368E0,8.032596E1,0E0,0E0,7.1014404E-1,5.666521E1,0E0,0E0,0E0,1.2396269E1,0E0,1.4775183E1,0E0,0E0,0E0,2.2854385E1,6.8479004E0,8.624245E1,1.0805437E2,9.3803925E1,8.534676E1,6.236026E1,1.9154663E0,0E0,6.596946E1,0E0,6.0962944E0,2.9977417E-1,0E0,0E0,0E0,0E0,0E0,3.8041377E-1,0E0,0E0,0E0,0E0,0E0,0E0,0E0,0E0,0E0,0E0,0E0,0E0,0E0,0E0,0E0,0E0,0E0,0E0,0E0,0E0,0E0,0E0,0E0,0E0],"parents":[2147483647,0,0,1,1,2,2,3,3,4,4,5,5,6,6,7,7,8,8,9,9,10,10,11,11,12,12,13,13,15,15,16,16,17,17,18,18,19,19,20,20,21,21,23,23,24,24,28,28,29,29,30,30,32,32,33,33,35,35,36,36,39,39,40,40,44,44,46,46,50,50,51,51,52,52,53,53,54,54,55,55,56,56,57,57,59,59,61,61,62,62,68,68],"right_children":[2,4,6,8,10,12,14,16,18,20,22,24,26,28,-1,30,32,34,36,38,40,42,-1,44,46,-1,-1,-1,48,50,52,-1,54,56,-1,58,60,-1,-1,62,64,-1,-1,-1,66,-1,68,-1,-1,-1,70,72,74,76,78,80,82,84,-1,86,-1,88,90,-1,-1,-1,-1,-1,92,-1,-1,-1,-1,-1,-1,-1,-1,-1,-1,-1,-1,-1,-1,-1,-1,-1,-1,-1,-1,-1,-1,-1,-1],"split_conditions":[5.102041E-2,2.964824E-2,1.2060301E-2,7.2789446E-2,6.6376334E-1,1.4230534E-2,4.4927537E-1,9.1724773E-4,6.909705E-1,5.9541874E-2,1.6466761E-2,5.587982E-1,3.043478E-1,1.5241817E-1,1.3539106E-1,5.1294576E-2,5.1020407E-3,2.6819736E-1,1.10405475E-1,1.8075231E-2,1.6756229E-1,8.235302E-1,1.4543115E-1,2.4377137E-1,1.0164668E-3,1.3122548E-1,-1.319581E-1,1.3543278E-1,4.173505E-1,3.3781912E-2,4.9398345E-1,-1.5714307E-1,4.600077E-1,1.6756229E-1,1.4448978E-1,2.1105528E-2,1.431363E-1,1.3397531E-1,-1.4720461E-1,4.347826E-1,1.9491939E-1,-1.533234E-1,1.3272832E-1,1.3422379E-1,1.632653E-1,1.2532137E-1,8.542714E-3,1.3412985E-1,-1.3533661E-1,1.6224788E-1,5.406912E-3,5.2271616E-2,5.3737175E-2,4.1910946E-2,6.098801E-4,1.309233E-1,3.6794862E-3,6.6376334E-1,-1.4884754E-1,7.9390603E-1,1.7104153E-1,3.9266134E-3,6.985833E-2,-1.538472E-1,1.4079031E-1,-1.3131037E-1,1.2316867E-1,-1.3437681E-1,5.933141E-1,-4.40598E-2,-1.582397E-1,-1.1610943E-1,2.1430615E-1,2.2796993E-1,-7.4043125E-2,9.999297E-2,-5.150467E-2,1.9367148E-1,-6.9324784E-2,-2.2627786E-2,1.579683E-1,1.6742675E-1,-1.287537E-1,1.3670225E-1,1.9254117E-1,-1.2982434E-1,1.4930406E-1,-1.1311807E-1,1.438456E-1,1.7421617E-1,1.5082757E-1,1.2341414E-1,3.2413833E-2],"split_indices":[3,5,5,4,8,6,7,3,7,4,6,8,8,4,0,4,3,4,4,4,4,7,0,4,6,0,0,0,7,4,7,0,8,4,0,5,4,0,0,8,4,0,0,0,3,0,5,0,0,0,5,4,4,4,6,4,6,8,0,7,0,3,4,0,0,0,0,0,0,0,0,0,0,0,0,0,0,0,0,0,0,0,0,0,0,0,0,0,0,0,0,0,0],"split_type":[0,0,0,0,0,0,0,0,0,0,0,0,0,0,0,0,0,0,0,0,0,0,0,0,0,0,0,0,0,0,0,0,0,0,0,0,0,0,0,0,0,0,0,0,0,0,0,0,0,0,0,0,0,0,0,0,0,0,0,0,0,0,0,0,0,0,0,0,0,0,0,0,0,0,0,0,0,0,0,0,0,0,0,0,0,0,0,0,0,0,0,0,0],"sum_hessian":[1.1327613E4,9.183127E3,2.1444858E3,8.237247E3,9.458797E2,5.2427563E2,1.6202102E3,5.9400083E3,2.2972388E3,7.120445E2,2.338352E2,4.114746E2,1.1280098E2,5.0414862E2,1.1160616E3,8.5133746E2,5.088671E3,1.8437528E3,4.5348602E2,8.957286E1,6.224717E2,1.5674345E2,7.7091736E1,3.3220364E2,7.927099E1,2.7629326E1,8.517165E1,3.162824E2,1.8786621E2,3.842993E2,4.6703815E2,1.3328001E2,4.955391E3,1.7695603E3,7.419253E1,1.78092E2,2.75394E2,2.4710215E1,6.486264E1,4.1613794E2,2.0633371E2,1.4371622E2,1.3027247E1,2.9593268E2,3.6270947E1,1.0310988E1,6.896E1,7.732725E1,1.10538956E2,7.0933235E1,3.1336606E2,1.7457518E2,2.9246295E2,1.5780244E3,3.3773667E3,1.4961105E3,2.734497E2,1.7560802E2,2.4839735E0,2.0112422E2,7.426979E1,1.3212775E2,2.8401022E2,2.9761137E1,1.7657257E2,2.6558264E1,9.712683E0,5.6857704E1,1.21023E1,1.0762272E2,2.0574333E2,1.9600861E0,1.726151E2,4.357811E1,2.4888486E2,2.1760269E2,1.3604218E3,5.421094E1,3.3231558E3,1.3838774E3,1.1223304E2,3.1331074E1,2.4211864E2,4.6401947E1,1.2920607E2,1.5906245E2,4.2061768E1,3.100566E0,1.2902718E2,1.1581737E2,1.6819284E2,8.732266E0,3.3700325E0],"tree_param":{"num_deleted":"0","num_feature":"10","num_nodes":"93","size_leaf_vector":"1"}},{"base_weights":[3.237483E-4,1.15974575E-1,-4.923797E-1,1.707637E-1,-3.5915494E-1,-2.2359951E-1,-5.806139E-1,2.3738906E-1,-1.4887413E-3,-5.470862E-1,2.1173698E-1,-1.351317E-1,-6.013295E-3,-1.3586186E-1,-3.8386375E-1,-7.8668455E-3,2.781451E-1,3.6341873E-1,-7.205641E-2,3.1819084E-1,-6.731028E-1,6.5276927E-1,-1.4464109E-1,-2.3048453E-1,1.3356636E-1,4.509218E-1,-5.057422E-1,3.154258E-1,-2.800169E-1,2.5917122E-1,6.891447E-1,-6.5066713E-1,5.8309275E-1,-1.8102173E-2,-7.559203E-1,-1.3457945E-1,1.4729099E-1,-7.683114E-1,-4.8310092E-1,1.5324032E-1,-1.3207895E-1,7.617297E-2,-6.544843E-1,1.3456221E-1,-1.3184577E-1,-5.7655734E-1,1.1391094E-1,-1.618508E-1,5.789588E-1,2.344978E-2,-1.0658997E0,2.952396E-1,-4.4429228E-2,-1.9566482E-1,1.5610202E-1,-8.848468E-1,1.4896868E-1,7.2395974E-1,-1.6729382E-1,4.8696485E-1,-7.590359E-2,-1.665054E-1,-1.3219234E-1,-6.7979324E-1,-8.0614996E-1,1.5396167E-1,-1.4065963E-1,2.4798833E-1,-1.2614882E-1,1.0381962E-1,-1.3484003E-1,-1.3355921E-1,-4.814812E-2,1.315959E-1,-1.2976976E-1,3.2148294E-2,1.5819548E-1,-2.0202647E-1,6.2857136E-2,-1.1413324E-1,-2.1624108E-1,3.503728E-3,6.91961E-2,1.4137691E-1,-6.7123584E-2,-1.4061943E-1,-2.0109752E-1,7.322999E-2,1.6024138E-1,1.4725728E-1,-1.8756036E-1,-1.6142023E-1,-3.159405E-3,1.1582106E-1,-1.4394213E-1,-1.7447345E-1,-1.510562E-1,-2.4465282E-2,1.3394538E-1,1.315303E-1,-1.3184524E-1],"categories":[],"categories_nodes":[],"categories_segments":[],"categories_sizes":[],"default_left":[0,0,0,0,0,0,0,0,0,0,0,0,0,0,0,0,0,0,0,0,0,0,0,0,0,0,0,0,0,0,0,0,0,0,0,0,0,0,0,0,0,0,0,0,0,0,0,0,0,0,0,0,0,0,0,0,0,0,0,0,0,0,0,0,0,0,0,0,0,0,0,0,0,0,0,0,0,0,0,0,0,0,0,0,0,0,0,0,0,0,0,0,0,0,0,0,0,0,0,0,0],"id":7,"left_children":[1,3,5,7,9,11,13,15,17,19,21,-1,23,-1,25,27,29,31,33,35,37,39,-1,41,-1,43,45,47,49,51,53,55,57,59,61,-1,-1,63,65,-1,-1,67,69,-1,-1,71,73,-1,75,77,79,81,83,-1,-1,85,-1,87,-1,89,91,-1,-1,93,95,-1,-1,97,-1,-1,-1,-1,99,-1,-1,-1,-1,-1,-1,-1,-1,-1,-1,-1,-1,-1,-1,-1,-1,-1,-1,-1,-1,-1,-1,-1,-1,-1,-1,-1,-1],"loss_changes":[6.390014E2,2.364914E2,5.042865E1,9.346347E1,1.00897934E2,5.198069E1,3.089325E1,5.8702026E1,5.8542595E1,7.73042E1,9.6697105E1,0E0,5.42726E1,0E0,5.499038E1,7.3800964E1,3.909137E1,8.244855E1,7.02764E1,3.803366E1,1.0798187E1,2.4203354E1,0E0,3.504257E1,0E0,1.7465158E1,2.0696007E1,1.1410115E2,1.0863449E2,5.274054E1,3.45263E1,2.2250172E1,6.1263847E1,5.1614254E1,4.6294403E-1,0E0,0E0,8.240204E-1,5.814843E1,0E0,0E0,1.9234055E1,2.9659195E0,0E0,0E0,2.0317398E1,2.0783829E1,0E0,2.7466057E1,9.937193E1,3.447876E-1,6.064435E1,1.1228721E2,0E0,0E0,5.4354477E-1,0E0,7.348755E0,0E0,6.518592E1,6.969912E1,0E0,0E0,6.9016953E0,2.8959656E-1,0E0,0E0,1.992826E1,0E0,0E0,0E0,0E0,2.770348E1,0E0,0E0,0E0,0E0,0E0,0E0,0E0,0E0,0E0,0E0,0E0,0E0,0E0,0E0,0E0,0E0,0E0,0E0,0E0,0E0,0E0,0E0,0E0,0E0,0E0,0E0,0E0,0E0],"parents":[2147483647,0,0,1,1,2,2,3,3,4,4,5,5,6,6,7,7,8,8,9,9,10,10,12,12,14,14,15,15,16,16,17,17,18,18,19,19,20,20,21,21,23,23,25,25,26,26,27,27,28,28,29,29,30,30,31,31,32,32,33,33,34,34,37,37,38,38,41,41,42,42,45,45,46,46,48,48,49,49,50,50,51,51,52,52,55,55,57,57,59,59,60,60,63,63,64,64,67,67,72,72],"right_children":[2,4,6,8,10,12,14,16,18,20,22,-1,24,-1,26,28,30,32,34,36,38,40,-1,42,-1,44,46,48,50,52,54,56,58,60,62,-1,-1,64,66,-1,-1,68,70,-1,-1,72,74,-1,76,78,80,82,84,-1,-1,86,-1,88,-1,90,92,-1,-1,94,96,-1,-1,98,-1,-1,-1,-1,100,-1,-1,-1,-1,-1,-1,-1,-1,-1,-1,-1,-1,-1,-1,-1,-1,-1,-1,-1,-1,-1,-1,-1,-1,-1,-1,-1,-1],"split_conditions":[5.102041E-2,2.964824E-2,1.2060301E-2,7.2789446E-2,6.6376334E-1,3.043478E-1,1.6463117E-1,9.1724773E-4,5.1020407E-3,5.9541874E-2,1.6466761E-2,-1.351317E-1,1.4230534E-2,-1.3586186E-1,1.7928676E-1,5.1294576E-2,5.6E-1,8.793356E-2,2.2081095E-1,1.8075231E-2,1.6756229E-1,7.826087E-1,-1.4464109E-1,8.542714E-3,1.3356636E-1,2.5125628E-2,7.264289E-1,3.3781912E-2,4.065867E-3,4.24E-1,1.4698727E-3,9.1724773E-4,1.1587721E-2,1.6263468E-3,2.4894917E-2,-1.3457945E-1,1.4729099E-1,4.347826E-1,1.9491939E-1,1.5324032E-1,-1.3207895E-1,7.7251475E-3,4.1910946E-2,1.3456221E-1,-1.3184577E-1,4.8790403E-2,1.1181135E-2,-1.618508E-1,5.406912E-3,5.5691257E-2,2.0930232E-1,4.396678E-2,4.1524183E-2,-1.9566482E-1,1.5610202E-1,7.620908E-2,1.4896868E-1,5.406912E-3,-1.6729382E-1,1.5306123E-2,7.4743524E-2,-1.665054E-1,-1.3219234E-1,3.9266134E-3,6.985833E-2,1.5396167E-1,-1.4065963E-1,7.653061E-2,-1.2614882E-1,1.0381962E-1,-1.3484003E-1,-1.3355921E-1,6.871315E-2,1.315959E-1,-1.2976976E-1,3.2148294E-2,1.5819548E-1,-2.0202647E-1,6.2857136E-2,-1.1413324E-1,-2.1624108E-1,3.503728E-3,6.91961E-2,1.4137691E-1,-6.7123584E-2,-1.4061943E-1,-2.0109752E-1,7.322999E-2,1.6024138E-1,1.4725728E-1,-1.8756036E-1,-1.6142023E-1,-3.159405E-3,1.1582106E-1,-1.4394213E-1,-1.7447345E-1,-1.510562E-1,-2.4465282E-2,1.3394538E-1,1.315303E-1,-1.3184524E-1],"split_indices":[3,5,5,4,8,8,4,3,3,4,6,0,6,0,4,4,9,4,4,4,4,8,0,5,0,5,4,4,6,9,5,3,6,6,3,0,0,8,4,0,0,6,4,0,0,6,6,0,5,4,0,4,4,0,0,4,0,5,0,3,4,0,0,3,4,0,0,3,0,0,0,0,6,0,0,0,0,0,0,0,0,0,0,0,0,0,0,0,0,0,0,0,0,0,0,0,0,0,0,0,0],"split_type":[0,0,0,0,0,0,0,0,0,0,0,0,0,0,0,0,0,0,0,0,0,0,0,0,0,0,0,0,0,0,0,0,0,0,0,0,0,0,0,0,0,0,0,0,0,0,0,0,0,0,0,0,0,0,0,0,0,0,0,0,0,0,0,0,0,0,0,0,0,0,0,0,0,0,0,0,0,0,0,0,0,0,0,0,0,0,0,0,0,0,0,0,0,0,0,0,0,0,0,0,0],"sum_hessian":[1.1212177E4,9.081312E3,2.130865E3,8.1429546E3,9.383566E2,5.2750555E2,1.6033594E3,5.871532E3,2.2714226E3,7.059932E2,2.3236339E2,1.7071709E2,3.5678848E2,1.0661143E3,5.372451E2,8.367948E2,5.0347373E3,3.6740594E2,1.9040167E3,8.955439E1,6.1643884E2,1.5809052E2,7.427286E1,2.6812775E2,8.8660736E1,6.810076E1,4.6914432E2,3.8238855E2,4.5440625E2,4.814123E3,2.2061438E2,6.50682E1,3.0233774E2,1.7657336E3,1.3828313E2,2.6397057E1,6.3157333E1,4.0863242E2,2.0780643E2,1.4590375E2,1.2186779E1,1.5607034E2,1.1205741E2,5.708496E1,1.10158E1,4.210908E2,4.8053528E1,7.219806E1,3.101905E2,3.2851944E2,1.25886795E2,4.3029507E3,5.1117197E2,1.0955872E1,2.0965851E2,5.603152E1,9.036678E0,2.754901E2,2.6847628E1,1.8056215E2,1.5851715E3,7.223844E1,6.6044685E1,1.2804791E2,2.805845E2,3.0689426E1,1.77117E2,1.2607674E2,2.9993603E1,1.4329406E0,1.1062447E2,3.5886328E2,6.222751E1,2.81277E1,1.9925827E1,1.049431E2,2.052474E2,7.1598206E1,2.5692123E2,4.9217515E0,1.2096505E2,6.64929E2,3.638022E3,1.423803E2,3.687917E2,2.5078255E1,3.0953266E1,4.9934216E1,2.255559E2,1.5408232E2,2.6479822E1,1.1946382E2,1.4657076E3,3.5202472E0,1.24527664E2,1.1488588E2,1.6569862E2,6.750913E1,5.85676E1,2.8840408E1,3.33871E1],"tree_param":{"num_deleted":"0","num_feature":"10","num_nodes":"101","size_leaf_vector":"1"}},{"base_weights":[6.208858E-3,-9.220883E-2,4.6926755E-1,-1.887155E-1,5.7622634E-2,-1.7602297E-2,5.1038516E-1,-1.996665E-1,6.914711E-1,-7.09118E-2,2.802403E-1,1.2506722E-1,-3.6845E-1,2.1911326E-1,5.510123E-1,1.2643775E-1,-2.2296555E-1,1.4226377E-1,-2.996611E-2,-4.0784052E-1,2.5640234E-2,7.072274E-1,6.366443E-2,1.2095475E-1,-4.9844915E-1,-3.3962917E-2,1.25405E-1,6.083506E-1,2.4182281E-1,4.0512246E-1,-3.9242142E-1,-1.5463462E-1,-3.5164884E-1,8.1269944E-1,-5.1372474E-1,1.8720385E-1,-2.3902479E-1,7.4438477E-1,5.6478125E-1,7.5284654E-1,-4.5363802E-2,-1.2755966E-1,1.1554648E-1,1.2503207E-1,-4.1534108E-1,2.7611557E-1,1.2721987E-1,-1.2589644E-1,4.6902016E-1,5.436193E-1,-1.2726258E-1,1.4363904E-1,-5.6171805E-1,-2.5411534E-1,6.1416894E-4,1.4599097E-1,-4.3279546E-1,1.8884097E-1,4.6682304E-1,6.433968E-1,-6.3981515E-1,-1.168347E-1,6.159717E-1,-4.7308064E-1,1.3311027E-1,8.26585E-1,1.3390873E-1,1.371529E-1,5.2078683E-2,8.197948E-1,-1.4103344E-1,-1.8537174E-1,4.613555E-1,-1.2688926E-1,1.3690192E-1,1.2388861E-1,-1.2420795E-1,1.2654932E-1,-6.683672E-2,-4.8661094E-2,1.5057279E-1,-1.4300255E-1,1.19153224E-1,-3.3421896E-2,-1.1535162E-1,1.926543E-1,-2.0643873E-2,-4.4598922E-2,1.2629089E-1,2.0229442E-1,-9.006164E-2,-4.8986557E-3,1.0372231E-1,-1.3088588E-1,1.7150155E-1,-1.7413795E-1,-2.5911247E-2,-6.5271415E-2,1.559476E-1,1.8566062E-1,3.2131285E-3,1.8046299E-1,-1.22849226E-1,1.5437597E-1,-1.16270244E-1,1.796808E-1,1.4682221E-1,-1.6778305E-1,1.1628544E-1,2.1855764E-1,1.5220681E-1,1.304575E-1,-5.9254315E-2,1.3956575E-1,-8.071525E-2,-1.2276504E-1,1.21670224E-1],"categories":[],"categories_nodes":[],"categories_segments":[],"categories_sizes":[],"default_left":[0,0,0,0,0,0,0,0,0,0,0,0,0,0,0,0,0,0,0,0,0,0,0,0,0,0,0,0,0,0,0,0,0,0,0,0,0,0,0,0,0,0,0,0,0,0,0,0,0,0,0,0,0,0,0,0,0,0,0,0,0,0,0,0,0,0,0,0,0,0,0,0,0,0,0,0,0,0,0,0,0,0,0,0,0,0,0,0,0,0,0,0,0,0,0,0,0,0,0,0,0,0,0,0,0,0,0,0,0,0,0,0,0,0,0,0,0],"id":8,"left_children":[1,3,5,7,9,11,13,15,17,19,21,-1,23,25,27,29,31,-1,-1,33,35,37,39,-1,41,43,-1,45,47,49,51,53,55,57,59,61,63,65,67,69,71,-1,-1,-1,73,75,-1,-1,77,79,-1,-1,81,83,85,87,89,-1,91,93,95,97,99,101,103,105,-1,-1,107,109,-1,111,113,-1,-1,-1,-1,-1,115,-1,-1,-1,-1,-1,-1,-1,-1,-1,-1,-1,-1,-1,-1,-1,-1,-1,-1,-1,-1,-1,-1,-1,-1,-1,-1,-1,-1,-1,-1,-1,-1,-1,-1,-1,-1,-1,-1],"loss_changes":[4.8598114E2,1.271788E2,3.7427948E1,5.1700912E1,9.862934E1,3.3283947E1,2.0276184E1,4.017914E1,1.2080078E0,7.110921E1,1.1662468E2,0E0,1.237494E1,2.197364E1,2.6658264E1,5.1204903E1,4.3316956E1,0E0,0E0,6.3337715E1,7.272414E1,1.8262787E0,6.3013725E1,0E0,1.3075323E1,3.3486305E1,0E0,1.1576904E1,4.7447224E1,3.3542625E1,2.3692606E1,4.978476E1,6.911398E1,1.3445873E0,6.586488E1,1.377316E2,5.621793E1,1.4983215E0,5.6685486E0,1.1758667E1,5.1493336E1,0E0,0E0,0E0,2.07569E1,3.119684E1,0E0,0E0,1.6667942E1,3.3721176E1,0E0,0E0,1.9596287E1,5.5053894E1,1.2603283E2,4.3218636E1,3.764807E1,0E0,3.381567E-1,1.2948965E1,4.7602234E1,1.16478264E2,8.210565E1,7.744185E1,1.1441088E2,3.6775208E-1,0E0,0E0,9.2790575E0,9.3250275E-1,0E0,5.3001167E1,3.242542E1,0E0,0E0,0E0,0E0,0E0,1.7086678E1,0E0,0E0,0E0,0E0,0E0,0E0,0E0,0E0,0E0,0E0,0E0,0E0,0E0,0E0,0E0,0E0,0E0,0E0,0E0,0E0,0E0,0E0,0E0,0E0,0E0,0E0,0E0,0E0,0E0,0E0,0E0,0E0,0E0,0E0,0E0,0E0,0E0,0E0],"parents":[2147483647,0,0,1,1,2,2,3,3,4,4,5,5,6,6,7,7,8,8,9,9,10,10,12,12,13,13,14,14,15,15,16,16,19,19,20,20,21,21,22,22,24,24,25,25,27,27,28,28,29,29,30,30,31,31,32,32,33,33,34,34,35,35,36,36,37,37,38,38,39,39,40,40,44,44,45,45,48,48,49,49,52,52,53,53,54,54,55,55,56,56,58,58,59,59,60,60,61,61,62,62,63,63,64,64,65,65,68,68,69,69,71,71,72,72,78,78],"right_children":[2,4,6,8,10,12,14,16,18,20,22,-1,24,26,28,30,32,-1,-1,34,36,38,40,-1,42,44,-1,46,48,50,52,54,56,58,60,62,64,66,68,70,72,-1,-1,-1,74,76,-1,-1,78,80,-1,-1,82,84,86,88,90,-1,92,94,96,98,100,102,104,106,-1,-1,108,110,-1,112,114,-1,-1,-1,-1,-1,116,-1,-1,-1,-1,-1,-1,-1,-1,-1,-1,-1,-1,-1,-1,-1,-1,-1,-1,-1,-1,-1,-1,-1,-1,-1,-1,-1,-1,-1,-1,-1,-1,-1,-1,-1,-1,-1,-1],"split_conditions":[5.102041E-2,6.790425E-2,4.0107537E-2,2.8461069E-2,7.7251475E-3,2.826087E-1,6.122449E-2,3.3781912E-2,6.5474063E-1,3.6956522E-1,2.2197036E-1,1.2506722E-1,8.822795E-3,2.2197036E-1,2.769907E-1,5.4052738E-3,3.246916E-1,1.4226377E-1,-2.996611E-2,2.6633182E-1,4.4724536E-3,2.6047818E-2,8.158281E-2,1.2095475E-1,6.836461E-2,1.6342624E-1,1.25405E-1,5.6668296E-2,2.965315E-1,2.3785323E-2,1.3190034E-2,4.4724536E-3,2.0997007E-3,6.9269175E-3,1.961563E-3,8.5002445E-2,1.5306123E-2,1.7889814E-2,3.5844645E-1,6.3784397E-1,1.5486076E-1,-1.2755966E-1,1.1554648E-1,1.2503207E-1,4.7869042E-1,5.3737175E-2,1.2721987E-1,-1.2589644E-1,7.264289E-1,1.7303568E-1,-1.2726258E-1,1.4363904E-1,1.0723861E-2,6.9269175E-3,4.396678E-2,4.0173802E-1,3.3333334E-1,1.8884097E-1,4.6511628E-2,7.3766485E-2,4.4724536E-3,3.2526937E-3,6.863561E-1,2.2197036E-1,2.010724E-2,3.5844645E-1,1.3390873E-1,1.371529E-1,2.5208376E-2,8.335028E-3,-1.4103344E-1,4.647087E-1,3.4153283E-2,-1.2688926E-1,1.3690192E-1,1.2388861E-1,-1.2420795E-1,1.2654932E-1,1.1181135E-2,-4.8661094E-2,1.5057279E-1,-1.4300255E-1,1.19153224E-1,-3.3421896E-2,-1.1535162E-1,1.926543E-1,-2.0643873E-2,-4.4598922E-2,1.2629089E-1,2.0229442E-1,-9.006164E-2,-4.8986557E-3,1.0372231E-1,-1.3088588E-1,1.7150155E-1,-1.7413795E-1,-2.5911247E-2,-6.5271415E-2,1.559476E-1,1.8566062E-1,3.2131285E-3,1.8046299E-1,-1.22849226E-1,1.5437597E-1,-1.16270244E-1,1.796808E-1,1.4682221E-1,-1.6778305E-1,1.1628544E-1,2.1855764E-1,1.5220681E-1,1.304575E-1,-5.9254315E-2,1.3956575E-1,-8.071525E-2,-1.2276504E-1,1.21670224E-1],"split_indices":[3,4,4,6,6,8,3,4,7,8,9,0,2,9,4,2,9,0,0,7,6,3,4,0,2,9,0,4,4,6,4,6,6,2,6,4,3,6,8,7,4,0,0,0,7,4,0,0,4,9,0,0,2,2,4,9,7,0,0,4,6,6,8,9,2,8,0,0,6,6,0,7,6,0,0,0,0,0,6,0,0,0,0,0,0,0,0,0,0,0,0,0,0,0,0,0,0,0,0,0,0,0,0,0,0,0,0,0,0,0,0,0,0,0,0,0,0],"split_type":[0,0,0,0,0,0,0,0,0,0,0,0,0,0,0,0,0,0,0,0,0,0,0,0,0,0,0,0,0,0,0,0,0,0,0,0,0,0,0,0,0,0,0,0,0,0,0,0,0,0,0,0,0,0,0,0,0,0,0,0,0,0,0,0,0,0,0,0,0,0,0,0,0,0,0,0,0,0,0,0,0,0,0,0,0,0,0,0,0,0,0,0,0,0,0,0,0,0,0,0,0,0,0,0,0,0,0,0,0,0,0,0,0,0,0,0,0],"sum_hessian":[1.0661806E4,8.793625E3,1.8681809E3,5.3484326E3,3.4451924E3,1.4553117E2,1.7226498E3,5.28347E3,6.4962166E1,2.1845586E3,1.2606337E3,5.1102333E1,9.442884E1,2.11649E2,1.5110007E3,3.5201932E2,4.931451E3,6.361586E1,1.3463068E0,4.858631E2,1.6986956E3,4.23474E2,8.3715967E2,1.0696746E1,8.373209E1,1.311795E2,8.0469505E1,1.2738091E3,2.3719164E2,2.291563E2,1.2286303E2,3.2225015E3,1.7089495E3,3.8252033E1,4.4761105E2,1.0549802E3,6.4371545E2,3.325119E2,9.0962105E1,1.1354177E2,7.2361786E2,7.449365E1,9.238446E0,4.7847332E1,8.333217E1,9.9033554E1,1.1747756E3,4.8690865E1,1.8850078E2,2.0268053E2,2.6475763E1,1.5822477E1,1.0704055E2,1.9636145E3,1.258887E3,2.3948491E2,1.4694646E3,2.6461311E1,1.1790721E1,4.357983E1,4.0403122E2,6.176986E2,4.372816E2,3.9500452E2,2.4871092E2,1.5367805E2,1.7883383E2,7.3322525E1,1.763958E1,1.08975624E2,4.5661454E0,5.67461E2,1.5615686E2,6.984187E1,1.3490297E1,7.184799E1,2.7185568E1,1.4424664E2,4.4254128E1,4.2538708E1,1.6014182E2,9.4859795E1,1.2180758E1,1.5477551E3,4.1585947E2,1.2175937E2,1.1371276E3,1.3637283E2,1.03112076E2,1.6924828E1,1.4525397E3,1.1745775E0,1.0616143E1,5.88027E0,3.7699562E1,2.776829E2,1.2634833E2,5.012064E2,1.1649222E2,2.8720535E2,1.5007623E2,3.6266163E1,3.5873834E2,1.3126875E2,1.1744216E2,8.159386E1,7.2084206E1,6.3561563E0,1.1283422E1,1.618505E1,9.279057E1,6.5773384E1,5.0168762E2,1.2278148E2,3.337538E1,2.4498276E1,1.9755854E1],"tree_param":{"num_deleted":"0","num_feature":"10","num_nodes":"117","size_leaf_vector":"1"}},{"base_weights":[-4.371286E-3,9.355301E-2,-4.6394506E-1,1.3882063E-1,-3.380714E-1,-2.222106E-1,-5.4256934E-1,1.950859E-1,-6.0591684E-3,2.6719826E-1,-4.4710684E-1,-5.1068383E-1,7.758249E-2,-1.2717675E-1,-3.6219096E-1,3.5075644E-1,1.4541373E-1,1.4817415E-1,-1.4252782E-1,-1.2451904E-1,4.6182203E-1,-5.452451E-1,-1.3104922E-1,-1.2727287E-1,1.2251586E-1,-1.8897855E-1,1.2438132E-1,3.854011E-1,-4.676421E-1,4.178752E-1,-2.8117085E-1,1.1756268E-1,1.4790942E-1,-2.8051937E-1,3.6831656E-1,-5.89378E-1,-4.1374285E-2,-1.4192265E-1,1.3477378E-1,-6.8266207E-1,-3.2558742E-1,2.8708762E-1,-1.2902045E-1,1.2699768E-1,-3.774523E-1,1.2557705E-1,-1.2266926E-1,-2.626158E-1,-1.2628192E-1,2.4892466E-1,5.8879566E-1,3.5560095E-1,-1.075933E0,1.3232675E-1,-9.577E-1,1.359673E-1,-9.100689E-1,5.711397E-1,1.8394705E-2,1.6500019E-1,-8.372935E-1,-7.47916E-1,2.6898194E-2,-6.931053E-1,1.1365926E-1,4.4526166E-1,-1.3080913E-1,-1.3366707E-1,1.408581E-1,2.645011E-1,-1.2494494E-1,-1.2621698E-1,2.2359316E-1,-1.7217797E-1,6.494548E-2,-2.0893243E-1,1.2554571E-1,7.355722E-3,1.44124E-1,-2.3287645E-1,-1.333664E-1,-1.4173691E-1,2.9656515E-2,-1.54319E-1,-2.1620122E-1,8.3466075E-2,-1.6268425E-1,-1.8891619E-1,1.2043401E-1,5.1439703E-2,1.4762026E-1,-7.281943E-2,8.501997E-2,-1.3394405E-1,-1.8278196E-1,-1.1470522E-1,-1.5949455E-1,-1.2375375E-2,1.08339064E-1,-1.1479048E-1,-1.4143503E-1,1.3693853E-1,-1.2376614E-1,1.2926945E-1,-1.16717935E-1,-1.2134186E-1,9.8375835E-2],"categories":[],"categories_nodes":[],"categories_segments":[],"categories_sizes":[],"default_left":[0,0,0,0,0,0,0,0,0,0,0,0,0,0,0,0,0,0,0,0,0,0,0,0,0,0,0,0,0,0,0,0,0,0,0,0,0,0,0,0,0,0,0,0,0,0,0,0,0,0,0,0,0,0,0,0,0,0,0,0,0,0,0,0,0,0,0,0,0,0,0,0,0,0,0,0,0,0,0,0,0,0,0,0,0,0,0,0,0,0,0,0,0,0,0,0,0,0,0,0,0,0,0,0,0,0,0],"id":9,"left_children":[1,3,5,7,9,11,13,15,17,19,21,23,25,-1,27,29,31,33,35,-1,37,39,41,-1,-1,43,-1,45,47,49,51,53,-1,55,57,59,61,-1,-1,63,65,67,-1,-1,69,-1,-1,71,-1,73,75,77,79,81,83,85,87,89,91,-1,93,95,97,99,-1,101,-1,-1,-1,103,-1,-1,105,-1,-1,-1,-1,-1,-1,-1,-1,-1,-1,-1,-1,-1,-1,-1,-1,-1,-1,-1,-1,-1,-1,-1,-1,-1,-1,-1,-1,-1,-1,-1,-1,-1,-1],"loss_changes":[4.7924423E2,1.7156848E2,3.5430542E1,6.4774734E1,5.5131905E1,3.9887413E1,2.3515106E1,4.4204773E1,4.6824932E1,2.2430939E1,2.1848724E1,3.3557743E1,3.3027565E1,0E0,3.8281586E1,5.88087E1,7.173774E1,9.866534E1,5.332518E1,0E0,2.6682482E1,1.6045624E1,3.645952E1,0E0,0E0,2.4003437E1,0E0,1.4987053E1,1.407119E1,3.5987488E1,6.792413E1,6.596795E1,0E0,9.3181786E1,4.8993484E1,7.705755E1,4.6496777E1,0E0,0E0,4.713211E0,5.3289352E1,3.7841892E1,0E0,0E0,2.0033302E1,0E0,0E0,3.418039E1,0E0,5.3364597E1,4.016707E1,8.683793E0,1.3806534E0,5.5017303E1,4.5779037E-1,5.7629948E1,7.950691E0,2.2719955E1,3.9728333E1,0E0,1.7734528E0,2.7663422E-1,4.02307E1,1.4456177E-1,0E0,1.6509544E1,0E0,0E0,0E0,1.1875928E1,0E0,0E0,1.870982E1,0E0,0E0,0E0,0E0,0E0,0E0,0E0,0E0,0E0,0E0,0E0,0E0,0E0,0E0,0E0,0E0,0E0,0E0,0E0,0E0,0E0,0E0,0E0,0E0,0E0,0E0,0E0,0E0,0E0,0E0,0E0,0E0,0E0,0E0],"parents":[2147483647,0,0,1,1,2,2,3,3,4,4,5,5,6,6,7,7,8,8,9,9,10,10,11,11,12,12,14,14,15,15,16,16,17,17,18,18,20,20,21,21,22,22,25,25,27,27,28,28,29,29,30,30,31,31,33,33,34,34,35,35,36,36,39,39,40,40,41,41,44,44,47,47,49,49,50,50,51,51,52,52,53,53,54,54,55,55,56,56,57,57,58,58,60,60,61,61,62,62,63,63,65,65,69,69,72,72],"right_children":[2,4,6,8,10,12,14,16,18,20,22,24,26,-1,28,30,32,34,36,-1,38,40,42,-1,-1,44,-1,46,48,50,52,54,-1,56,58,60,62,-1,-1,64,66,68,-1,-1,70,-1,-1,72,-1,74,76,78,80,82,84,86,88,90,92,-1,94,96,98,100,-1,102,-1,-1,-1,104,-1,-1,106,-1,-1,-1,-1,-1,-1,-1,-1,-1,-1,-1,-1,-1,-1,-1,-1,-1,-1,-1,-1,-1,-1,-1,-1,-1,-1,-1,-1,-1,-1,-1,-1,-1,-1],"split_conditions":[5.102041E-2,2.964824E-2,1.2060301E-2,7.2789446E-2,5.9541874E-2,1.6342624E-1,1.6463117E-1,5.0251256E-3,6.702413E-3,1.8075231E-2,3.5714287E-2,2.0859794E-1,1.0977841E-2,-1.2717675E-1,1.7928676E-1,4.24E-1,5.6E-1,3.5526024E-3,5.406912E-3,-1.2451904E-1,2.6809652E-3,1.3629702E-1,1.3214068E-2,-1.2727287E-1,1.2251586E-1,3.517588E-3,1.2438132E-1,2.5125628E-2,1.6E-1,2.0997007E-3,4.1524183E-2,5E-1,1.4790942E-1,8.89106E-2,7.785071E-3,5.0251256E-4,1.6E-1,-1.4192265E-1,1.3477378E-1,2.6047818E-2,1.9491939E-1,2.48E-1,-1.2902045E-1,1.2699768E-1,3.3781912E-2,1.2557705E-1,-1.2266926E-1,1E-1,-1.2628192E-1,3.6638983E-2,1.4698727E-3,6.9269175E-3,1.0723861E-2,2.4914509E-2,5.069504E-3,7.451061E-3,5.4052738E-3,2.863473E-3,2.92E-1,1.6500019E-1,1.28E-1,9.148201E-3,1.8766755E-2,1.6342624E-1,1.1365926E-1,1.2064343E-2,-1.3080913E-1,-1.3366707E-1,1.408581E-1,3.217158E-2,-1.2494494E-1,-1.2621698E-1,3.8873993E-2,-1.7217797E-1,6.494548E-2,-2.0893243E-1,1.2554571E-1,7.355722E-3,1.44124E-1,-2.3287645E-1,-1.333664E-1,-1.4173691E-1,2.9656515E-2,-1.54319E-1,-2.1620122E-1,8.3466075E-2,-1.6268425E-1,-1.8891619E-1,1.2043401E-1,5.1439703E-2,1.4762026E-1,-7.281943E-2,8.501997E-2,-1.3394405E-1,-1.8278196E-1,-1.1470522E-1,-1.5949455E-1,-1.2375375E-2,1.08339064E-1,-1.1479048E-1,-1.4143503E-1,1.3693853E-1,-1.2376614E-1,1.2926945E-1,-1.16717935E-1,-1.2134186E-1,9.8375835E-2],"split_indices":[3,5,5,4,4,9,4,5,2,4,3,4,6,0,4,9,9,6,5,0,2,4,6,0,0,5,0,5,9,6,4,9,0,4,6,5,9,0,0,3,4,9,0,0,4,0,0,9,0,4,5,2,2,4,3,5,2,2,9,0,9,6,2,9,0,2,0,0,0,2,0,0,2,0,0,0,0,0,0,0,0,0,0,0,0,0,0,0,0,0,0,0,0,0,0,0,0,0,0,0,0,0,0,0,0,0,0],"split_type":[0,0,0,0,0,0,0,0,0,0,0,0,0,0,0,0,0,0,0,0,0,0,0,0,0,0,0,0,0,0,0,0,0,0,0,0,0,0,0,0,0,0,0,0,0,0,0,0,0,0,0,0,0,0,0,0,0,0,0,0,0,0,0,0,0,0,0,0,0,0,0,0,0,0,0,0,0,0,0,0,0,0,0,0,0,0,0,0,0,0,0,0,0,0,0,0,0,0,0,0,0,0,0,0,0,0,0],"sum_hessian":[1.0647095E4,8.777594E3,1.8695009E3,7.945019E3,8.325742E2,4.5976254E2,1.4097383E3,5.7223506E3,2.2226687E3,1.2686728E2,7.05707E2,2.3394633E2,2.2581622E2,9.274296E2,4.823087E2,1.382764E3,4.3395864E3,1.043381E3,1.1792878E3,2.2374615E1,1.0449266E2,5.379456E2,1.6776132E2,2.1079428E2,2.3152048E1,1.5202222E2,7.379401E1,5.929366E1,4.2301505E2,1.2503044E3,1.3245964E2,4.146414E3,1.9317252E2,3.5391385E2,6.894671E2,2.1678851E2,9.624993E2,1.5655986E1,8.883668E1,3.296255E2,2.0832018E2,9.27549E1,7.500642E1,2.7859098E1,1.2416312E2,4.8008972E1,1.1284686E1,1.8900124E2,2.340138E2,6.3001086E2,6.202936E2,7.384601E1,5.861363E1,4.0911172E3,5.5296795E1,2.1347243E2,1.4044142E2,4.3607523E2,2.5339189E2,3.1984795E1,1.8480371E2,8.393311E1,8.785662E2,3.2733875E2,2.2867382E0,6.2137005E1,1.4618317E2,2.800944E1,6.474546E1,3.4507412E1,8.96557E1,1.0734945E2,8.1651794E1,3.961773E1,5.903931E2,1.3838928E1,6.0645465E2,4.0004887E1,3.3841118E1,4.6675915E1,1.1937714E1,7.5363914E1,4.0157532E3,2.4929068E1,3.0367727E1,1.6510263E2,4.8369793E1,1.376748E2,2.766613E0,1.5228023E2,2.8379498E2,1.3063708E2,1.227548E2,6.103991E1,1.237638E2,2.1355677E1,6.257744E1,7.5009467E2,1.2847156E2,3.898464E1,2.883541E2,5.1014748E1,1.112226E1,2.3958271E1,1.0549142E1,1.9632109E1,6.201968E1],"tree_param":{"num_deleted":"0","num_feature":"10","num_nodes":"107","size_leaf_vector":"1"}},{"base_weights":[7.2389184E-3,-9.9333435E-2,3.5468724E-1,-1.2738763E-1,4.7743437E-1,1.7894647E-1,4.7789443E-1,-1.7696513E-1,2.4014272E-2,5.5271405E-1,-2.4695018E-1,-1.3354807E-1,2.3687793E-1,1.0293477E-1,5.3881437E-1,1.2891823E-1,-1.9774903E-1,-3.936849E-1,1.09825216E-1,1.3438739E-1,3.2220262E-1,1.1848574E-1,-1.2354987E-1,6.3087416E-1,1.524959E-1,1.2011007E-1,-1.8618058E-1,1.2088567E-1,2.2003819E-1,-4.4624424E-1,6.38575E-1,1.495054E-1,-2.184248E-1,-4.7965533E-1,6.559631E-1,3.379206E-1,-3.5131928E-2,-1.2981533E-1,1.2446915E-1,6.7796004E-1,4.9448708E-1,-2.1890591E-1,3.6414224E-1,-1.2177219E-1,1.1870201E-1,-1.20286E-1,4.506352E-1,-6.159613E-1,1.679729E-1,-1.3367349E-1,8.3428097E-1,-5.466641E-1,4.6654096E-1,-1.5480411E-1,-2.063618E-1,1.6026135E-1,-5.444873E-1,4.088309E-1,1.5326457E-1,-1.5169542E-1,4.0069464E-1,2.4571484E-1,-2.9356375E-1,1.6353102E-1,1.2316028E-1,-1.1916592E-1,1.1163985E-1,1.3737811E-1,-3.0880094E-1,5.941334E-1,5.6112714E-2,1.2070562E-1,-6.8744496E-2,1.2324202E-1,-1.4465079E-1,-1.3779888E-1,1.8682711E-1,1.13416635E-1,-1.3696297E-1,1.4341407E-1,-3.3590537E-2,2.1140027E-1,-4.3469097E-2,-1.19406216E-1,1.18752874E-1,1.0134746E-1,3.2052804E-2,1.9609746E-2,1.5622543E-1,1.6482185E-1,1.8146655E-2,1.3230029E-2,-9.651202E-2,1.15873754E-1,-7.557833E-2,1.4460848E-1,-7.669322E-2,-8.033365E-2,7.6347604E-2,-1.165136E-1,1.14610374E-1],"categories":[],"categories_nodes":[],"categories_segments":[],"categories_sizes":[],"default_left":[0,0,0,0,0,0,0,0,0,0,0,0,0,0,0,0,0,0,0,0,0,0,0,0,0,0,0,0,0,0,0,0,0,0,0,0,0,0,0,0,0,0,0,0,0,0,0,0,0,0,0,0,0,0,0,0,0,0,0,0,0,0,0,0,0,0,0,0,0,0,0,0,0,0,0,0,0,0,0,0,0,0,0,0,0,0,0,0,0,0,0,0,0,0,0,0,0,0,0,0,0],"id":10,"left_children":[1,3,5,7,9,11,13,15,17,19,21,-1,23,25,27,29,31,33,35,-1,37,-1,-1,39,41,-1,43,-1,45,47,49,51,53,55,57,59,61,-1,-1,63,65,67,69,-1,-1,-1,71,73,-1,-1,75,77,79,-1,81,-1,83,85,-1,-1,87,89,91,-1,-1,-1,-1,-1,93,95,97,-1,99,-1,-1,-1,-1,-1,-1,-1,-1,-1,-1,-1,-1,-1,-1,-1,-1,-1,-1,-1,-1,-1,-1,-1,-1,-1,-1,-1,-1],"loss_changes":[3.7147775E2,1.2428734E2,5.090323E1,5.4964897E1,1.9567245E1,4.7840622E1,3.1552734E1,3.5093246E1,6.481518E1,8.662643E0,1.1021314E1,0E0,3.0178001E1,2.8113245E1,2.4759521E1,1.0333859E2,3.7119354E1,2.812556E1,4.9604675E1,0E0,3.3072033E1,0E0,0E0,6.942253E-1,5.913642E1,0E0,4.1184082E1,0E0,3.905071E1,3.669692E1,4.8337585E1,6.445208E1,3.251718E1,2.414125E1,3.34548E-1,4.042295E1,6.669958E1,0E0,0E0,5.078201E-1,3.4471378E0,2.2469822E1,3.3897774E1,0E0,0E0,0E0,1.278035E1,1.9880352E1,0E0,0E0,2.5424545E1,1.4462881E1,3.1974602E1,0E0,6.646651E1,0E0,1.663926E1,1.4941132E-1,0E0,0E0,6.3478477E1,3.9408375E1,3.256449E1,0E0,0E0,0E0,0E0,0E0,1.5520611E1,3.482084E1,3.0837812E1,0E0,1.26611595E1,0E0,0E0,0E0,0E0,0E0,0E0,0E0,0E0,0E0,0E0,0E0,0E0,0E0,0E0,0E0,0E0,0E0,0E0,0E0,0E0,0E0,0E0,0E0,0E0,0E0,0E0,0E0,0E0],"parents":[2147483647,0,0,1,1,2,2,3,3,4,4,5,5,6,6,7,7,8,8,9,9,10,10,12,12,13,13,14,14,15,15,16,16,17,17,18,18,20,20,23,23,24,24,26,26,28,28,29,29,30,30,31,31,32,32,33,33,34,34,35,35,36,36,39,39,40,40,41,41,42,42,46,46,47,47,50,50,51,51,52,52,54,54,56,56,57,57,60,60,61,61,62,62,68,68,69,69,70,70,72,72],"right_children":[2,4,6,8,10,12,14,16,18,20,22,-1,24,26,28,30,32,34,36,-1,38,-1,-1,40,42,-1,44,-1,46,48,50,52,54,56,58,60,62,-1,-1,64,66,68,70,-1,-1,-1,72,74,-1,-1,76,78,80,-1,82,-1,84,86,-1,-1,88,90,92,-1,-1,-1,-1,-1,94,96,98,-1,100,-1,-1,-1,-1,-1,-1,-1,-1,-1,-1,-1,-1,-1,-1,-1,-1,-1,-1,-1,-1,-1,-1,-1,-1,-1,-1,-1,-1],"split_conditions":[1.7426273E-2,4.2713568E-2,6.122449E-2,7.572056E-2,7.8515905E-1,1.884058E-1,5.5691257E-2,2.826087E-1,3.2608697E-1,1.4753297E-1,4.213271E-3,-1.3354807E-1,3.9130434E-1,3.2656375E-1,2.769907E-1,4.9829017E-2,3.3781912E-2,1.4186053E-2,5.217391E-1,1.3438739E-1,1.9491939E-1,1.1848574E-1,-1.2354987E-1,3.2656375E-1,4.972094E-1,1.2011007E-1,1.1557789E-2,1.2088567E-1,2.965315E-1,9.547738E-3,4.2741597E-3,6.0301507E-3,3.043478E-1,2.6086956E-1,4.213271E-3,1.0050251E-3,1.11871034E-1,-1.2981533E-1,1.2446915E-1,1.8766755E-2,2.1447722E-2,4.640938E-2,1.0356619E-1,-1.2177219E-1,1.1870201E-1,-1.20286E-1,7.264289E-1,1.4492753E-1,1.679729E-1,-1.3367349E-1,2.4637681E-1,2.5125628E-3,5.4052738E-3,-1.5480411E-1,3.188406E-1,1.6026135E-1,2.1787982E-1,5.363973E-1,1.5326457E-1,-1.5169542E-1,4.876409E-1,4.213271E-3,7.981707E-3,1.6353102E-1,1.2316028E-1,-1.1916592E-1,1.1163985E-1,1.3737811E-1,3.9459568E-1,7.704367E-1,5.217391E-1,1.2070562E-1,4.204649E-1,1.2324202E-1,-1.4465079E-1,-1.3779888E-1,1.8682711E-1,1.13416635E-1,-1.3696297E-1,1.4341407E-1,-3.3590537E-2,2.1140027E-1,-4.3469097E-2,-1.19406216E-1,1.18752874E-1,1.0134746E-1,3.2052804E-2,1.9609746E-2,1.5622543E-1,1.6482185E-1,1.8146655E-2,1.3230029E-2,-9.651202E-2,1.15873754E-1,-7.557833E-2,1.4460848E-1,-7.669322E-2,-8.033365E-2,7.6347604E-2,-1.165136E-1,1.14610374E-1],"split_indices":[2,5,3,4,7,7,4,8,8,4,2,0,8,8,4,4,4,5,8,0,4,0,0,8,7,0,5,0,4,5,5,5,8,7,2,5,4,0,0,2,2,4,4,0,0,0,4,7,0,0,7,5,2,0,7,0,4,0,0,0,7,2,5,0,0,0,0,0,7,7,8,0,7,0,0,0,0,0,0,0,0,0,0,0,0,0,0,0,0,0,0,0,0,0,0,0,0,0,0,0,0],"split_type":[0,0,0,0,0,0,0,0,0,0,0,0,0,0,0,0,0,0,0,0,0,0,0,0,0,0,0,0,0,0,0,0,0,0,0,0,0,0,0,0,0,0,0,0,0,0,0,0,0,0,0,0,0,0,0,0,0,0,0,0,0,0,0,0,0,0,0,0,0,0,0,0,0,0,0,0,0,0,0,0,0,0,0,0,0,0,0,0,0,0,0,0,0,0,0,0,0,0,0,0,0],"sum_hessian":[1.003029E4,7.6764253E3,2.3538652E3,7.3211035E3,3.5532193E2,9.71123E2,1.3827423E3,5.51501E3,1.8060935E3,3.220869E2,3.323502E1,6.1516304E1,9.096067E2,1.9363242E2,1.1891099E3,3.5055634E2,5.1644536E3,3.0719287E2,1.4989006E3,2.1102675E2,1.1106015E2,1.0000089E1,2.323493E1,1.5930484E2,7.503019E2,7.0762024E1,1.228704E2,9.853901E2,2.0371982E2,1.6475264E2,1.858037E2,2.8986536E2,4.874588E3,2.8443918E2,2.2753695E1,5.819111E2,9.1698956E2,2.5943388E1,8.511676E1,1.1546956E2,4.383527E1,2.7234695E2,4.7795493E2,7.9818726E1,4.305167E1,4.4299866E1,1.5941995E2,1.4600644E2,1.874619E1,2.3884645E1,1.6191905E2,9.047329E1,1.9939206E2,1.0224487E2,4.7723433E3,1.3155267E1,2.712839E2,8.476505E0,1.427719E1,3.0912764E1,5.509983E2,4.3946118E2,4.775284E2,3.1814823E1,8.365474E1,1.9589832E0,4.187629E1,2.3988998E1,2.4835794E2,2.731087E2,2.0484622E2,1.230384E2,3.6381554E1,1.1315342E1,1.346911E2,9.5982485E0,1.523208E2,9.641372E0,8.083192E1,1.4285553E2,5.6536537E1,4.0312347E1,4.732031E3,2.5976804E2,1.1515877E1,5.336077E0,3.1404276E0,3.075725E2,2.4342578E2,9.1957275E1,3.475039E2,1.6470253E2,3.1282587E2,1.739229E1,2.3096565E2,2.415214E2,3.1587317E1,8.504791E1,1.1979831E2,2.0256468E1,1.6125084E1],"tree_param":{"num_deleted":"0","num_feature":"10","num_nodes":"101","size_leaf_vector":"1"}},{"base_weights":[3.7579893E-4,8.260923E-2,-4.3795964E-1,1.2142406E-1,-3.1695953E-1,-1.9524072E-1,-5.187335E-1,1.4708225E-1,1.0961067E-1,-4.732268E-1,1.5641609E-1,-4.8577574E-1,9.182721E-2,-1.2101952E-1,-3.5395968E-1,9.365025E-2,5.30281E-1,3.3901578E-1,-5.8839744E-1,5.446658E-1,-1.2895364E-1,-1.2093258E-1,1.157066E-1,-1.7299157E-1,1.1809832E-1,3.795631E-1,-4.5569295E-1,1.3487537E-1,-8.341292E-2,8.357658E-1,-2.942373E-2,-1.1663093E-1,1.2837887E-1,-6.5578103E-1,-4.3917465E-1,1.3118568E-1,-1.1920822E-1,-5.716807E-1,2.6278305E-1,1.1897923E-1,-1.1339762E-1,-2.3309022E-1,-1.2092298E-1,2.9718073E-2,2.4757104E-1,2.3832333E-1,-2.4718791E-1,1.5608318E-1,2.0044015E-1,-7.234623E-1,1.405649E-1,-5.394781E-1,-1.3411216E-1,1.2910585E-1,-1.23228826E-1,-3.801161E-1,-1.19333565E-1,-1.1271763E-1,4.0954545E-1,-1.2043331E-1,4.1212574E-1,2.6178306E-2,-5.354304E-2,-2.0227415E-2,6.6961065E-2,-3.012899E-2,1.2665953E-1,-8.1829615E-2,3.2418676E-2,-5.9463676E-2,-1.4788215E-1,1.0163438E-1,-1.2330436E-1,-1.0669538E-1,1.21019455E-2,1.20968655E-1,-9.716443E-2,1.2008287E-1,-1.08393274E-1],"categories":[],"categories_nodes":[],"categories_segments":[],"categories_sizes":[],"default_left":[0,0,0,0,0,0,0,0,0,0,0,0,0,0,0,0,0,0,0,0,0,0,0,0,0,0,0,0,0,0,0,0,0,0,0,0,0,0,0,0,0,0,0,0,0,0,0,0,0,0,0,0,0,0,0,0,0,0,0,0,0,0,0,0,0,0,0,0,0,0,0,0,0,0,0,0,0,0,0],"id":11,"left_children":[1,3,5,7,9,11,13,-1,15,17,19,21,23,-1,25,27,29,31,33,35,-1,-1,-1,37,-1,39,41,43,45,47,49,-1,-1,51,53,-1,-1,55,57,-1,-1,59,-1,61,63,65,67,-1,-1,69,-1,71,-1,-1,-1,73,-1,-1,75,-1,77,-1,-1,-1,-1,-1,-1,-1,-1,-1,-1,-1,-1,-1,-1,-1,-1,-1,-1],"loss_changes":[3.610095E2,1.3083041E2,3.0916351E1,5.567694E1,5.5328835E1,3.3125916E1,1.666977E1,0E0,5.059655E1,5.275611E1,5.8250126E1,2.531343E1,2.655988E1,0E0,3.0800117E1,5.306929E1,4.7133316E1,2.003867E1,4.6633453E0,1.6372398E1,0E0,0E0,0E0,2.3019903E1,0E0,1.0637422E1,1.1822624E1,6.9869545E1,7.242507E1,8.6013794E-1,5.0438766E1,0E0,0E0,2.1788025E-1,3.0384315E1,0E0,0E0,1.0374451E-1,7.941372E0,0E0,0E0,3.5083668E1,0E0,9.185744E1,8.660861E1,7.1347275E1,6.0426834E1,0E0,0E0,1.2631416E-1,0E0,3.795001E0,0E0,0E0,0E0,7.5691414E-1,0E0,0E0,9.835668E0,0E0,9.994481E0,0E0,0E0,0E0,0E0,0E0,0E0,0E0,0E0,0E0,0E0,0E0,0E0,0E0,0E0,0E0,0E0,0E0,0E0],"parents":[2147483647,0,0,1,1,2,2,3,3,4,4,5,5,6,6,8,8,9,9,10,10,11,11,12,12,14,14,15,15,16,16,17,17,18,18,19,19,23,23,25,25,26,26,27,27,28,28,29,29,30,30,33,33,34,34,37,37,38,38,41,41,43,43,44,44,45,45,46,46,49,49,51,51,55,55,58,58,60,60],"right_children":[2,4,6,8,10,12,14,-1,16,18,20,22,24,-1,26,28,30,32,34,36,-1,-1,-1,38,-1,40,42,44,46,48,50,-1,-1,52,54,-1,-1,56,58,-1,-1,60,-1,62,64,66,68,-1,-1,70,-1,72,-1,-1,-1,74,-1,-1,76,-1,78,-1,-1,-1,-1,-1,-1,-1,-1,-1,-1,-1,-1,-1,-1,-1,-1,-1,-1],"split_conditions":[5.102041E-2,2.964824E-2,1.2060301E-2,1.0050251E-3,6.6376334E-1,1.6342624E-1,1.6463117E-1,1.4708225E-1,2.5125628E-2,5.9541874E-2,1.6466761E-2,2.0859794E-1,1.0977841E-2,-1.2101952E-1,1.7928676E-1,1.5306123E-2,2.5510205E-2,1.8075231E-2,1.6756229E-1,7.826087E-1,-1.2895364E-1,-1.2093258E-1,1.157066E-1,5.587982E-1,1.1809832E-1,2.5125628E-2,3.2608697E-1,5.587982E-1,3.455987E-3,1.1968735E-1,2.92E-1,-1.1663093E-1,1.2837887E-1,3.2608697E-1,1.9491939E-1,1.3118568E-1,-1.1920822E-1,4.494382E-2,1.0164668E-3,1.1897923E-1,-1.1339762E-1,3.043478E-1,-1.2092298E-1,1.0050251E-2,2.0997007E-3,2.5547068E-3,1.6582914E-2,1.5608318E-1,2.0044015E-1,1.744186E-1,1.405649E-1,3.9266134E-3,-1.3411216E-1,1.2910585E-1,-1.23228826E-1,6.873148E-1,-1.19333565E-1,-1.1271763E-1,8.542714E-3,-1.2043331E-1,1.8367347E-1,2.6178306E-2,-5.354304E-2,-2.0227415E-2,6.6961065E-2,-3.012899E-2,1.2665953E-1,-8.1829615E-2,3.2418676E-2,-5.9463676E-2,-1.4788215E-1,1.0163438E-1,-1.2330436E-1,-1.0669538E-1,1.21019455E-2,1.20968655E-1,-9.716443E-2,1.2008287E-1,-1.08393274E-1],"split_indices":[3,5,5,5,8,9,4,0,5,4,6,4,6,0,4,3,3,4,4,8,0,0,0,8,0,5,8,8,6,4,9,0,0,8,4,0,0,4,6,0,0,8,0,5,6,6,5,0,0,0,0,3,0,0,0,0,0,0,5,0,3,0,0,0,0,0,0,0,0,0,0,0,0,0,0,0,0,0,0],"split_type":[0,0,0,0,0,0,0,0,0,0,0,0,0,0,0,0,0,0,0,0,0,0,0,0,0,0,0,0,0,0,0,0,0,0,0,0,0,0,0,0,0,0,0,0,0,0,0,0,0,0,0,0,0,0,0,0,0,0,0,0,0,0,0,0,0,0,0,0,0,0,0,0,0,0,0,0,0,0,0],"sum_hessian":[1.0013288E4,8.432188E3,1.5810997E3,7.6862305E3,7.45958E2,3.956427E2,1.185457E3,1.4393852E2,7.542292E3,5.608234E2,1.8513458E2,1.962899E2,1.9935281E2,7.7603564E2,4.094214E2,7.267772E3,2.7451978E2,6.94044E1,4.9141904E2,1.2491944E2,6.0215134E1,1.7695523E2,1.933467E1,1.3063264E2,6.872018E1,4.9534447E1,3.5988693E2,5.895401E3,1.3723712E3,1.772721E2,9.724767E1,1.6930613E1,5.2473793E1,3.3620602E2,1.5521303E2,1.1420506E2,1.0714383E1,6.805626E1,6.257638E1,4.065684E1,8.877604E0,1.4528531E2,2.1460162E2,3.0503535E3,2.8450474E3,4.627813E2,9.095899E2,1.373003E2,3.9971806E1,4.993261E1,4.7315063E1,4.2135883E1,2.9407013E2,2.1399681E1,1.3381334E2,9.723443E0,5.8332813E1,9.009075E0,5.3567307E1,9.246196E1,5.282335E1,2.2765374E3,7.7381604E2,5.692764E2,2.275771E3,2.3347508E2,2.2930624E2,6.517004E2,2.5788953E2,2.5099208E0,4.742269E1,2.5030577E0,3.9632828E1,7.0566397E0,2.666804E0,4.4241756E1,9.325548E0,4.442654E1,8.3968115E0],"tree_param":{"num_deleted":"0","num_feature":"10","num_nodes":"79","size_leaf_vector":"1"}},{"base_weights":[6.9445684E-3,-6.1874654E-2,4.4479892E-1,-9.323326E-2,2.8814426E-1,3.8730547E-2,4.807175E-1,-1.3689391E-1,-8.271446E-2,4.470389E-1,-1.7078851E-1,1.1413443E-1,-3.0361122E-1,-1.10737436E-1,4.9668884E-1,-6.882864E-2,-4.6520257E-1,-2.9502594E-1,5.580206E-1,-5.4203486E-1,1.2298303E-1,1.1112014E-1,-4.5123968E-1,1.1671366E-1,3.0515826E-1,-1.7050457E-1,-1.5003503E-2,1.3600312E-1,-6.9434446E-1,1.1336433E-1,-1.22900985E-1,6.176904E-1,3.9483386E-1,-1.2760763E-1,1.115669E-1,-1.1542394E-1,1.0065078E-1,-6.0655404E-2,1.156367E-1,-2.6367566E-1,1.8492562E-1,-5.7902575E-2,2.7850145E-1,-7.5054586E-1,1.0892236E-1,-9.079146E-2,6.258393E-1,1.2045087E-1,-1.21161155E-1,1.15236364E-1,-4.3511063E-1,3.7007623E-3,-8.381342E-2,-1.2337452E-1,7.776061E-2,2.0365047E-1,-1.4210817E-2,8.420444E-2,-3.3934847E-2,-1.4095342E-1,-1.671494E-1,1.3946883E-1,1.2035389E-1,-1.1628961E-1,-1.6675793E-2],"categories":[],"categories_nodes":[],"categories_segments":[],"categories_sizes":[],"default_left":[0,0,0,0,0,0,0,0,0,0,0,0,0,0,0,0,0,0,0,0,0,0,0,0,0,0,0,0,0,0,0,0,0,0,0,0,0,0,0,0,0,0,0,0,0,0,0,0,0,0,0,0,0,0,0,0,0,0,0,0,0,0,0,0,0],"id":12,"left_children":[1,3,5,7,9,11,13,-1,15,17,19,-1,21,-1,23,25,27,29,31,33,-1,-1,35,-1,37,39,41,-1,43,-1,-1,45,47,-1,-1,-1,-1,49,-1,51,53,55,57,59,-1,-1,61,-1,-1,-1,63,-1,-1,-1,-1,-1,-1,-1,-1,-1,-1,-1,-1,-1,-1],"loss_changes":[2.847426E2,8.965975E1,1.8701645E1,4.655847E1,4.9058414E1,1.9365808E1,1.975476E1,0E0,3.908784E1,4.1279106E1,5.0934067E1,0E0,8.467255E0,0E0,1.915271E1,3.8901566E1,6.813882E1,1.8411945E1,3.988205E0,1.2851669E1,0E0,0E0,6.998581E0,0E0,3.645113E1,8.153091E1,5.8554794E1,0E0,1.5404625E1,0E0,0E0,3.0478897E0,2.509331E1,0E0,0E0,0E0,0E0,3.762603E1,0E0,8.550755E1,8.387351E1,5.749365E1,3.7952198E1,2.161789E-1,0E0,0E0,1.2168121E-1,0E0,0E0,0E0,5.06098E0,0E0,0E0,0E0,0E0,0E0,0E0,0E0,0E0,0E0,0E0,0E0,0E0,0E0,0E0],"parents":[2147483647,0,0,1,1,2,2,3,3,4,4,5,5,6,6,8,8,9,9,10,10,12,12,14,14,15,15,16,16,17,17,18,18,19,19,22,22,24,24,25,25,26,26,28,28,31,31,32,32,37,37,39,39,40,40,41,41,42,42,43,43,46,46,50,50],"right_children":[2,4,6,8,10,12,14,-1,16,18,20,-1,22,-1,24,26,28,30,32,34,-1,-1,36,-1,38,40,42,-1,44,-1,-1,46,48,-1,-1,-1,-1,50,-1,52,54,56,58,60,-1,-1,62,-1,-1,-1,64,-1,-1,-1,-1,-1,-1,-1,-1,-1,-1,-1,-1,-1,-1],"split_conditions":[5.612245E-2,2.964824E-2,4.0107537E-2,1.0050251E-3,6.6376334E-1,2.826087E-1,1.0050251E-3,-1.3689391E-1,2.5125628E-2,5.9541874E-2,1.6466761E-2,1.1413443E-1,8.822795E-3,-1.10737436E-1,1.6463117E-1,5.3619305E-3,4.4160005E-1,1.8075231E-2,3.8625736E-2,8.235302E-1,1.2298303E-1,1.1112014E-1,6.836461E-2,1.1671366E-1,4.9398345E-1,1.1557789E-2,1.0698583E-1,1.3600312E-1,1.2164143E-1,1.1336433E-1,-1.22900985E-1,6.350757E-2,1.4753297E-1,-1.2760763E-1,1.115669E-1,-1.1542394E-1,1.0065078E-1,3.043478E-1,1.156367E-1,9.1724773E-4,3.3333334E-1,6.098801E-4,7.2560334E-1,7.2789446E-2,1.0892236E-1,-9.079146E-2,6.985833E-2,1.2045087E-1,-1.21161155E-1,1.15236364E-1,4.7559136E-1,3.7007623E-3,-8.381342E-2,-1.2337452E-1,7.776061E-2,2.0365047E-1,-1.4210817E-2,8.420444E-2,-3.3934847E-2,-1.4095342E-1,-1.671494E-1,1.3946883E-1,1.2035389E-1,-1.1628961E-1,-1.6675793E-2],"split_indices":[3,5,4,5,8,8,5,0,5,4,6,0,2,0,4,2,7,4,6,7,0,0,2,0,7,5,4,0,4,0,0,4,4,0,0,0,0,8,0,3,7,6,7,4,0,0,4,0,0,0,7,0,0,0,0,0,0,0,0,0,0,0,0,0,0],"split_type":[0,0,0,0,0,0,0,0,0,0,0,0,0,0,0,0,0,0,0,0,0,0,0,0,0,0,0,0,0,0,0,0,0,0,0,0,0,0,0,0,0,0,0,0,0,0,0,0,0,0,0,0,0,0,0,0,0,0,0,0,0,0,0,0,0],"sum_hessian":[9.447678E3,8.165184E3,1.2824941E3,7.4944785E3,6.7070544E2,1.04392265E2,1.1781018E3,1.2988496E2,7.3645933E3,4.9823077E2,1.7247469E2,4.061555E1,6.377671E1,1.740153E1,1.1607003E3,7.107735E3,2.568588E2,6.4604294E1,4.3362646E2,1.17340996E2,5.5133694E1,8.94609E0,5.483062E1,7.97089E2,3.6361133E2,2.4595208E3,4.648214E3,4.2497036E1,2.1436176E2,1.7262266E1,4.734203E1,3.1548367E2,1.181428E2,1.0830718E2,9.033812E0,4.8791313E1,6.0393066E0,1.5573164E2,2.0787967E2,1.9489016E3,5.1061932E2,4.0561626E3,5.9205133E2,2.0543697E2,8.924801E0,1.968004E0,3.1351566E2,9.81878E1,1.9955006E1,5.746389E1,9.826775E1,6.9241235E2,1.2564893E3,1.0310556E2,4.0751376E2,4.8048542E1,4.008114E3,4.4924963E2,1.428017E2,1.3966594E2,6.577103E1,7.191234E1,2.4160333E2,6.893454E1,2.933321E1],"tree_param":{"num_deleted":"0","num_feature":"10","num_nodes":"65","size_leaf_vector":"1"}},{"base_weights":[4.257905E-5,6.93976E-2,-4.336815E-1,1.0234658E-1,-2.9932982E-1,1.1146831E-1,-4.4885883E-1,1.3690723E-1,9.2122756E-2,-4.4587976E-1,1.3558446E-1,-3.0458665E-1,-5.5610764E-1,1.2898484E-1,-4.9978934E-2,-4.888083E-1,1.1591502E-1,5.371396E-1,-1.2330824E-1,-1.1631186E-1,-1.14124194E-1,1.6811286E-1,-1.1666043E-1,1.1381337E-1,7.019725E-1,-8.8419056E-1,6.9608726E-3,-4.9417976E-2,-5.57832E-1,1.270438E-1,-1.111712E-1,7.5786896E-2,-1.1546786E-1,-1.114938E-1,1.13114975E-1,1.4435989E-1,-1.3828997E-1,-1.0790875E-1,7.758463E-1,-9.9069804E-1,3.4118134E-1,1.2706438E-1,-3.054938E-1,1.2530196E-1,-1.2666138E-1,-1.246398E-1,-3.9119035E-1,-2.4989353E-1,4.2362913E-1,-8.793927E-2,3.2043677E-2,-1.9473355E-1,2.7856955E-2,1.4530887E-1,1.7519794E-1,-1.4121024E-1,-2.3105808E-1,1.2643674E-1,-1.2416673E-1,-9.0478405E-2,4.90085E-2,-1.2575874E-1,-6.113651E-3,1.21319965E-1,-1.2065526E-1,-1.1552607E-1,6.2105514E-2,1.165458E-1,-1.0968959E-1],"categories":[],"categories_nodes":[],"categories_segments":[],"categories_sizes":[],"default_left":[0,0,0,0,0,0,0,0,0,0,0,0,0,0,0,0,0,0,0,0,0,0,0,0,0,0,0,0,0,0,0,0,0,0,0,0,0,0,0,0,0,0,0,0,0,0,0,0,0,0,0,0,0,0,0,0,0,0,0,0,0,0,0,0,0,0,0,0,0],"id":13,"left_children":[1,3,5,7,9,-1,11,-1,13,15,17,19,21,23,25,27,-1,29,-1,-1,31,33,-1,35,37,39,41,43,45,-1,-1,47,-1,-1,-1,49,51,-1,53,55,57,59,61,-1,-1,-1,63,65,67,-1,-1,-1,-1,-1,-1,-1,-1,-1,-1,-1,-1,-1,-1,-1,-1,-1,-1,-1,-1],"loss_changes":[2.8608908E2,9.964789E1,1.9971252E1,4.4743027E1,4.2945576E1,0E0,1.9820587E1,0E0,3.876306E1,2.2448006E1,5.1779934E1,2.9110672E1,1.4669006E1,5.099347E1,7.2429565E1,1.4645615E1,0E0,1.2315674E1,0E0,0E0,2.8983122E1,8.260966E0,0E0,4.410614E1,1.4300293E1,1.3053528E1,5.363773E1,2.6752903E1,4.3097534E0,0E0,0E0,2.6637127E1,0E0,0E0,0E0,4.736933E1,1.437164E2,0E0,7.0892334E-2,3.3958817E0,2.7818356E0,7.0689804E1,3.525574E1,0E0,0E0,0E0,2.585812E1,2.2510271E1,1.7891323E1,0E0,0E0,0E0,0E0,0E0,0E0,0E0,0E0,0E0,0E0,0E0,0E0,0E0,0E0,0E0,0E0,0E0,0E0,0E0,0E0],"parents":[2147483647,0,0,1,1,2,2,3,3,4,4,6,6,8,8,9,9,10,10,11,11,12,12,13,13,14,14,15,15,17,17,20,20,21,21,23,23,24,24,25,25,26,26,27,27,28,28,31,31,35,35,36,36,38,38,39,39,40,40,41,41,42,42,46,46,47,47,48,48],"right_children":[2,4,6,8,10,-1,12,-1,14,16,18,20,22,24,26,28,-1,30,-1,-1,32,34,-1,36,38,40,42,44,46,-1,-1,48,-1,-1,-1,50,52,-1,54,56,58,60,62,-1,-1,-1,64,66,68,-1,-1,-1,-1,-1,-1,-1,-1,-1,-1,-1,-1,-1,-1,-1,-1,-1,-1,-1,-1],"split_conditions":[5.612245E-2,2.964824E-2,1.4698727E-3,1.0050251E-3,6.6376334E-1,1.1146831E-1,4.9398345E-1,1.3690723E-1,1.5306123E-2,2.9490616E-2,1.6466761E-2,3.043478E-1,2.2487035E-3,2.361809E-2,8.822795E-3,3.7730068E-3,1.1591502E-1,8.235302E-1,-1.2330824E-1,-1.1631186E-1,1.8367347E-1,8.822795E-3,-1.1666043E-1,1.6582914E-2,1.3404826E-3,6.1619675E-1,6.5217394E-1,1.6342624E-1,3.8625736E-2,1.270438E-1,-1.111712E-1,5.0938338E-2,-1.1546786E-1,-1.114938E-1,1.13114975E-1,2.6086956E-1,5.082334E-3,-1.0790875E-1,6.911974E-3,2.48E-1,2.0408163E-2,1.28E-1,7.246377E-1,1.2530196E-1,-1.2666138E-1,-1.246398E-1,4.5741003E-2,4.4052228E-1,3.9130434E-1,-8.793927E-2,3.2043677E-2,-1.9473355E-1,2.7856955E-2,1.4530887E-1,1.7519794E-1,-1.4121024E-1,-2.3105808E-1,1.2643674E-1,-1.2416673E-1,-9.0478405E-2,4.90085E-2,-1.2575874E-1,-6.113651E-3,1.21319965E-1,-1.2065526E-1,-1.1552607E-1,6.2105514E-2,1.165458E-1,-1.0968959E-1],"split_indices":[3,5,5,5,8,0,7,0,3,2,6,8,6,5,2,2,0,7,0,0,3,2,0,5,2,8,8,9,6,0,0,2,0,0,0,7,6,0,6,9,3,9,7,0,0,0,6,8,8,0,0,0,0,0,0,0,0,0,0,0,0,0,0,0,0,0,0,0,0],"split_type":[0,0,0,0,0,0,0,0,0,0,0,0,0,0,0,0,0,0,0,0,0,0,0,0,0,0,0,0,0,0,0,0,0,0,0,0,0,0,0,0,0,0,0,0,0,0,0,0,0,0,0,0,0,0,0,0,0,0,0,0,0,0,0,0,0,0,0,0,0],"sum_hessian":[9.508643E3,8.198495E3,1.3101475E3,7.526647E3,6.718486E2,1.9223206E1,1.2909242E3,1.2875603E2,7.3978906E3,5.0249966E2,1.693489E2,5.520888E2,7.388354E2,5.8741826E3,1.5237083E3,4.828111E2,1.9688566E1,1.1059094E2,5.875796E1,2.2411903E2,3.279698E2,2.6551725E1,7.122837E2,5.7238267E3,1.503559E2,9.6428505E1,1.4272798E3,6.578073E1,4.1703036E2,1.01868645E2,8.7223015E0,2.3319841E2,9.4771385E1,9.254577E0,1.729715E1,5.105623E3,6.182036E2,8.090138E0,1.4226575E2,8.889353E1,7.534978E0,1.0314119E3,3.9586792E2,3.0453651E1,3.5327076E1,2.975668E2,1.1946358E2,1.20581245E2,1.1261716E2,1.3425867E2,4.9713643E3,1.5355698E2,4.6464664E2,1.0086404E2,4.1401714E1,3.450686E1,5.438667E1,6.048275E0,1.486703E0,1.7399428E2,8.574176E2,1.813369E2,2.1453104E2,2.0615362E1,9.884821E1,7.6066505E1,4.4514748E1,9.712177E1,1.5495388E1],"tree_param":{"num_deleted":"0","num_feature":"10","num_nodes":"69","size_leaf_vector":"1"}},{"base_weights":[3.643582E-3,-5.049857E-2,4.3893555E-1,-7.941402E-2,2.992711E-1,9.3970515E-2,5.003484E-1,-1.2799627E-1,-7.046643E-2,4.3846866E-1,-1.4308843E-1,1.1142328E-1,-1.3888718E-1,1.1275206E-1,2.0214774E-1,-7.723587E-2,1.2265847E-1,-2.791358E-1,5.3634477E-1,-5.163149E-1,1.1736884E-1,-4.2972544E-1,1.0974461E-1,-1.1175829E-1,4.221678E-1,-6.435697E-2,-5.0287944E-1,1.08649135E-1,-1.17315665E-1,5.930099E-1,4.0555888E-1,-1.2104569E-1,1.04755335E-1,1.06025115E-1,-1.1235342E-1,1.1248443E-1,-5.855912E-2,-7.4449204E-2,4.3525156E-1,-5.935012E-1,5.5080247E-1,4.2084455E-1,1.20815E-1,-2.6293305E-1,1.14023425E-1,-1.0661665E-1,1.04734994E-1,-1.1905011E-2,-1.0271467E-1,1.4349394E-1,-3.091862E-3,1.17834605E-1,-1.3166188E-1,1.3609366E-1,-5.0413173E-2,1.1272158E-1,-9.122965E-2,-1.16030656E-1,1.0498879E-1],"categories":[],"categories_nodes":[],"categories_segments":[],"categories_sizes":[],"default_left":[0,0,0,0,0,0,0,0,0,0,0,0,0,0,0,0,0,0,0,0,0,0,0,0,0,0,0,0,0,0,0,0,0,0,0,0,0,0,0,0,0,0,0,0,0,0,0,0,0,0,0,0,0,0,0,0,0,0,0],"id":14,"left_children":[1,3,5,7,9,11,13,-1,15,17,19,-1,21,-1,23,25,-1,27,29,31,-1,33,-1,-1,35,37,39,-1,-1,41,43,-1,-1,-1,-1,-1,45,47,49,51,53,55,-1,57,-1,-1,-1,-1,-1,-1,-1,-1,-1,-1,-1,-1,-1,-1,-1],"loss_changes":[2.1318553E2,8.138982E1,2.1152054E1,3.722967E1,3.7901615E1,1.6518898E1,1.5943924E1,0E0,3.3910427E1,3.2997375E1,4.0578976E1,0E0,2.0683624E1,0E0,2.5428415E1,3.968407E1,0E0,1.4676926E1,2.8119736E0,9.412579E0,0E0,9.4758215E0,0E0,0E0,7.941311E0,3.5496387E1,2.0630585E1,0E0,0E0,2.891159E-1,1.4194717E1,0E0,0E0,0E0,0E0,0E0,7.848637E0,4.5156666E1,1.7744024E1,1.5431816E1,1.9785652E0,2.8262966E0,0E0,6.7788944E0,0E0,0E0,0E0,0E0,0E0,0E0,0E0,0E0,0E0,0E0,0E0,0E0,0E0,0E0,0E0],"parents":[2147483647,0,0,1,1,2,2,3,3,4,4,5,5,6,6,8,8,9,9,10,10,12,12,14,14,15,15,17,17,18,18,19,19,21,21,24,24,25,25,26,26,29,29,30,30,36,36,37,37,38,38,39,39,40,40,41,41,43,43],"right_children":[2,4,6,8,10,12,14,-1,16,18,20,-1,22,-1,24,26,-1,28,30,32,-1,34,-1,-1,36,38,40,-1,-1,42,44,-1,-1,-1,-1,-1,46,48,50,52,54,56,-1,58,-1,-1,-1,-1,-1,-1,-1,-1,-1,-1,-1,-1,-1,-1,-1],"split_conditions":[6.122449E-2,2.964824E-2,5.5691257E-2,1.0050251E-3,6.6376334E-1,3.2656375E-1,2.769907E-1,-1.2799627E-1,2.6819736E-1,5.9541874E-2,1.6466761E-2,1.1142328E-1,1.1557789E-2,1.1275206E-1,2.965315E-1,1.8499695E-2,1.2265847E-1,1.8075231E-2,1.6756229E-1,8.235302E-1,1.1736884E-1,1.0164668E-3,1.0974461E-1,-1.1175829E-1,7.264289E-1,1.5450295E-2,5.962478E-1,1.08649135E-1,-1.17315665E-1,3.9266134E-3,1.9491939E-1,-1.2104569E-1,1.04755335E-1,1.06025115E-1,-1.1235342E-1,1.1248443E-1,1.1181135E-2,2.4623116E-2,4.347826E-1,3.5844645E-1,6.5474063E-1,9.1724773E-4,1.20815E-1,8.262822E-3,1.14023425E-1,-1.0661665E-1,1.04734994E-1,-1.1905011E-2,-1.0271467E-1,1.4349394E-1,-3.091862E-3,1.17834605E-1,-1.3166188E-1,1.3609366E-1,-5.0413173E-2,1.1272158E-1,-9.122965E-2,-1.16030656E-1,1.0498879E-1],"split_indices":[3,5,4,5,8,8,4,0,4,4,6,0,5,0,4,6,0,4,4,7,0,6,0,0,4,6,7,0,0,3,4,0,0,0,0,0,6,5,8,8,7,3,0,3,0,0,0,0,0,0,0,0,0,0,0,0,0,0,0],"split_type":[0,0,0,0,0,0,0,0,0,0,0,0,0,0,0,0,0,0,0,0,0,0,0,0,0,0,0,0,0,0,0,0,0,0,0,0,0,0,0,0,0,0,0,0,0,0,0,0,0,0,0,0,0,0,0,0,0,0,0],"sum_hessian":[9.043746E3,8.0440957E3,9.9965063E2,7.430583E3,6.1351306E2,1.5145216E2,8.481985E2,1.1563303E2,7.3149497E3,4.6667343E2,1.4683963E2,5.0204544E1,1.0124762E2,6.987253E2,1.4947322E2,7.2441177E3,7.083209E1,5.578909E1,4.1088434E2,9.735374E1,4.94859E1,7.14159E1,2.9831713E1,3.3180107E1,1.16293106E2,7.032484E3,2.1163397E2,1.49723625E1,4.0816727E1,2.84211E2,1.2667335E2,9.007193E1,7.281808E0,8.271683E0,6.3144222E1,8.9895676E1,2.639743E1,6.8940728E3,1.384112E2,1.9527602E2,1.6357954E1,1.9520433E1,2.6469055E2,2.4904583E1,1.0176876E2,1.4590504E1,1.1806926E1,6.668569E3,2.2550356E2,8.475128E1,5.3659912E1,9.72448E0,1.8555153E2,1.421469E1,2.1432652E0,1.7094934E1,2.4254994E0,1.7943644E1,6.9609394E0],"tree_param":{"num_deleted":"0","num_feature":"10","num_nodes":"59","size_leaf_vector":"1"}},{"base_weights":[1.0534124E-3,6.0363248E-2,-4.0678892E-1,1.0394126E-1,-8.375052E-2,-3.1701684E-1,-1.1302127E-1,1.7873053E-1,3.1392243E-2,-4.301273E-1,4.371597E-2,-1.407917E-1,-4.6543652E-1,2.0115358E-1,-4.1490015E-1,-3.4019533E-1,8.51157E-2,3.5838753E-1,-5.835647E-1,-6.46726E-1,8.937581E-2,-1.1248123E-1,7.417953E-2,-4.2416427E-2,-1.1356691E-1,2.2200473E-1,-3.5067752E-1,-9.264631E-1,1.3263382E-1,1.3520728E-1,-5.10828E-1,-2.7560676E-4,3.1396627E-1,1.3085125E-1,-5.5182606E-1,-6.7498875E-1,-1.8535514E-1,-7.5779045E-1,1.2365462E-1,1.2167572E-1,-5.591737E-1,-1.4149816E-1,3.9420968E-1,-1.096155E-1,2.7545738E-1,1.812907E-1,5.961991E-1,1.3401629E-1,-1.4913526E-1,-3.1870082E-1,-1.0033054E0,-8.6291116E-1,5.827895E-2,3.9990734E-2,-9.978223E-1,8.667942E-2,6.303484E-1,-1.1689037E-1,-1.6136628E-2,-7.1774924E-1,-5.169623E-1,-5.4103523E-1,2.0694016E-1,1.1430267E-1,-8.115357E-1,-6.541688E-2,2.1829395E-1,-1.20490335E-1,-3.1704327E-1,1.351501E-1,-1.0850578E-1,1.12944834E-1,-1.0662937E-1,-4.1022065E-1,1.1186196E-1,-7.425379E-2,4.223899E-2,-1.7919435E-1,1.269499E-1,9.124068E-2,-1.0536718E-1,-2.11233E-1,-1.3529779E-1,-9.330278E-2,-2.1120429E-1,1.3753603E-1,-1.4301649E-1,6.1944302E-2,-1.935285E-2,-1.5250383E-1,-2.4054642E-1,2.947393E-2,-2.9190537E-1,1.4467919E-1,-8.0872554E-4,-1.6362637E-1,-1.3274215E-1,-1.19386554E-1,-6.7097634E-2,-1.13618866E-1,3.0799642E-2,1.1894872E-1,-1.0583569E-1,-1.2508947E-1,-2.1256232E-1,3.5302117E-2,-1.6750136E-1,5.5635847E-2,-1.274041E-1,9.597062E-2,-1.10247076E-1,1.1355998E-1,-1.1289612E-1,-1.0814251E-1,1.01463035E-1],"categories":[],"categories_nodes":[],"categories_segments":[],"categories_sizes":[],"default_left":[0,0,0,0,0,0,0,0,0,0,0,0,0,0,0,0,0,0,0,0,0,0,0,0,0,0,0,0,0,0,0,0,0,0,0,0,0,0,0,0,0,0,0,0,0,0,0,0,0,0,0,0,0,0,0,0,0,0,0,0,0,0,0,0,0,0,0,0,0,0,0,0,0,0,0,0,0,0,0,0,0,0,0,0,0,0,0,0,0,0,0,0,0,0,0,0,0,0,0,0,0,0,0,0,0,0,0,0,0,0,0,0,0,0,0],"id":15,"left_children":[1,3,5,7,9,11,-1,13,15,17,19,21,23,25,27,29,31,33,35,37,39,-1,41,43,-1,45,47,49,-1,-1,51,53,55,-1,57,59,61,63,-1,65,67,69,71,-1,73,75,77,-1,-1,79,81,83,85,87,89,91,93,-1,-1,95,97,99,101,-1,103,105,107,-1,109,111,-1,-1,-1,113,-1,-1,-1,-1,-1,-1,-1,-1,-1,-1,-1,-1,-1,-1,-1,-1,-1,-1,-1,-1,-1,-1,-1,-1,-1,-1,-1,-1,-1,-1,-1,-1,-1,-1,-1,-1,-1,-1,-1,-1,-1],"loss_changes":[2.19422E2,4.9744286E1,1.618901E1,3.299008E1,8.122552E1,1.921653E1,0E0,3.9938416E1,6.16751E1,6.0082092E1,4.2472458E1,3.0718954E1,1.7291397E1,3.328308E1,6.089706E1,6.801839E1,5.273882E1,2.2236595E1,1.4970154E1,1.2210667E1,2.652198E1,0E0,1.5589783E1,1.2846958E1,0E0,4.2265945E1,4.3020794E1,3.1617584E0,0E0,0E0,6.7120735E1,7.902551E1,5.2680534E1,0E0,2.6748657E-1,1.9050751E0,1.1106982E1,5.98497E0,0E0,2.1773838E1,4.3865776E-1,1.5071079E1,1.4670414E1,0E0,9.798331E0,4.155134E1,1.62435E1,0E0,0E0,1.8262582E0,4.207611E-1,1.5341888E1,6.3220463E1,6.978592E1,2.763382E0,4.037159E1,1.8090942E1,0E0,0E0,8.8108826E-1,8.926697E-1,8.6995125E-1,1.1218045E1,0E0,2.827736E0,7.6863655E1,4.084842E1,0E0,2.3589044E0,2.4777575E1,0E0,0E0,0E0,2.0667841E0,0E0,0E0,0E0,0E0,0E0,0E0,0E0,0E0,0E0,0E0,0E0,0E0,0E0,0E0,0E0,0E0,0E0,0E0,0E0,0E0,0E0,0E0,0E0,0E0,0E0,0E0,0E0,0E0,0E0,0E0,0E0,0E0,0E0,0E0,0E0,0E0,0E0,0E0,0E0,0E0,0E0],"parents":[2147483647,0,0,1,1,2,2,3,3,4,4,5,5,7,7,8,8,9,9,10,10,11,11,12,12,13,13,14,14,15,15,16,16,17,17,18,18,19,19,20,20,22,22,23,23,25,25,26,26,27,27,30,30,31,31,32,32,34,34,35,35,36,36,37,37,39,39,40,40,41,41,42,42,44,44,45,45,46,46,49,49,50,50,51,51,52,52,53,53,54,54,55,55,56,56,59,59,60,60,61,61,62,62,64,64,65,65,66,66,68,68,69,69,73,73],"right_children":[2,4,6,8,10,12,-1,14,16,18,20,22,24,26,28,30,32,34,36,38,40,-1,42,44,-1,46,48,50,-1,-1,52,54,56,-1,58,60,62,64,-1,66,68,70,72,-1,74,76,78,-1,-1,80,82,84,86,88,90,92,94,-1,-1,96,98,100,102,-1,104,106,108,-1,110,112,-1,-1,-1,114,-1,-1,-1,-1,-1,-1,-1,-1,-1,-1,-1,-1,-1,-1,-1,-1,-1,-1,-1,-1,-1,-1,-1,-1,-1,-1,-1,-1,-1,-1,-1,-1,-1,-1,-1,-1,-1,-1,-1,-1,-1],"split_conditions":[5.102041E-2,7.7251475E-3,1.8367347E-1,5.797101E-1,2.2197036E-1,4.9398345E-1,-1.1302127E-1,6.911974E-3,5.962478E-1,8.944907E-3,8.335028E-3,3.043478E-1,4.8790406E-3,3.5714287E-2,4.4160005E-1,4.5652175E-1,5.082334E-3,6.389641E-3,4.600077E-1,2.92E-1,4.5741003E-2,-1.1248123E-1,5.0938338E-2,6.3784397E-1,-1.1356691E-1,1.761714E-2,1.6977507E-1,2.36E-1,1.3263382E-1,1.3520728E-1,5.8982825E-1,8.2608694E-1,3.246916E-1,1.3085125E-1,8.023256E-1,2.6047818E-2,6.9269175E-3,5.3619305E-3,1.2365462E-1,5.37764E-1,7.246377E-1,3.0831099E-2,3.9130434E-1,-1.096155E-1,2.9490616E-2,2.6086956E-1,8.822795E-3,1.3401629E-1,-1.4913526E-1,4.2028984E-1,1.7426273E-2,4.881823E-1,2.4185192E-3,5.3619305E-3,1.8296401E-3,3.2E-1,5E-1,-1.1689037E-1,-1.6136628E-2,1.1587721E-2,3.5844645E-1,8.2109433E-1,6.075565E-1,1.1430267E-1,6.3393843E-1,5.072464E-1,2.010724E-2,-1.20490335E-1,5.4052738E-3,2.2197036E-1,-1.0850578E-1,1.12944834E-1,-1.0662937E-1,2.5547068E-3,1.1186196E-1,-7.425379E-2,4.223899E-2,-1.7919435E-1,1.269499E-1,9.124068E-2,-1.0536718E-1,-2.11233E-1,-1.3529779E-1,-9.330278E-2,-2.1120429E-1,1.3753603E-1,-1.4301649E-1,6.1944302E-2,-1.935285E-2,-1.5250383E-1,-2.4054642E-1,2.947393E-2,-2.9190537E-1,1.4467919E-1,-8.0872554E-4,-1.6362637E-1,-1.3274215E-1,-1.19386554E-1,-6.7097634E-2,-1.13618866E-1,3.0799642E-2,1.1894872E-1,-1.0583569E-1,-1.2508947E-1,-2.1256232E-1,3.5302117E-2,-1.6750136E-1,5.5635847E-2,-1.274041E-1,9.597062E-2,-1.10247076E-1,1.1355998E-1,-1.1289612E-1,-1.0814251E-1,1.01463035E-1],"split_indices":[3,6,3,7,9,7,0,6,7,6,6,8,6,3,7,8,6,2,8,9,6,0,2,7,0,3,7,9,0,0,8,8,9,0,0,3,2,2,0,7,7,2,8,0,2,7,2,0,0,7,2,8,6,2,6,9,9,0,0,6,8,0,7,0,7,7,2,0,2,9,0,0,0,6,0,0,0,0,0,0,0,0,0,0,0,0,0,0,0,0,0,0,0,0,0,0,0,0,0,0,0,0,0,0,0,0,0,0,0,0,0,0,0,0,0],"split_type":[0,0,0,0,0,0,0,0,0,0,0,0,0,0,0,0,0,0,0,0,0,0,0,0,0,0,0,0,0,0,0,0,0,0,0,0,0,0,0,0,0,0,0,0,0,0,0,0,0,0,0,0,0,0,0,0,0,0,0,0,0,0,0,0,0,0,0,0,0,0,0,0,0,0,0,0,0,0,0,0,0,0,0,0,0,0,0,0,0,0,0,0,0,0,0,0,0,0,0,0,0,0,0,0,0,0,0,0,0,0,0,0,0,0,0],"sum_hessian":[9.06911E3,7.9184365E3,1.1506743E3,6.080159E3,1.8382772E3,7.3621466E2,4.1445966E2,2.9931348E3,3.0870242E3,4.9386813E2,1.344409E3,3.374702E2,3.9874442E2,2.8848281E3,1.0830666E2,3.8926605E2,2.6977583E3,8.023007E1,4.1363806E2,8.2576126E1,1.261833E3,1.1341593E2,2.2405429E2,7.798638E1,3.2075806E2,2.7803687E3,1.0445954E2,7.354763E1,3.475903E1,5.553803E1,3.3372803E2,1.9654036E3,7.3235474E2,6.0760746E1,1.9469326E1,3.358386E2,7.7799484E1,7.627986E1,6.296266E0,1.2027446E3,5.908828E1,1.3418257E2,8.987171E1,2.9822205E1,4.816418E1,2.5088762E3,2.7149243E2,2.8950087E1,7.550945E1,8.833004E0,6.471463E1,2.0585669E2,1.2787134E2,1.8900701E3,7.5333466E1,4.2692703E2,3.0542767E2,1.7983503E1,1.4858221E0,2.6152924E2,7.430935E1,4.0605125E1,3.7194363E1,2.5898676E0,7.3689995E1,4.0970682E2,7.9303784E2,4.886593E1,1.0222351E1,7.979768E1,5.438489E1,7.6243706E1,1.3628008E1,1.3970835E1,3.4193344E1,1.2822206E2,2.380654E3,6.277249E0,2.652152E2,1.6178292E0,7.2151747E0,5.3783913E1,1.0930714E1,6.855328E1,1.373034E2,7.055822E1,5.731312E1,6.354553E2,1.2546147E3,3.7263783E1,3.8069683E1,4.1167313E2,1.5253915E1,2.6623773E2,3.918993E1,8.6571976E1,1.7495726E2,4.9990566E1,2.4318779E1,3.9259315E1,1.3458078E0,2.448643E1,1.2707934E1,4.4341164E1,2.9348833E1,3.12545E2,9.71618E1,7.4177673E2,5.1261127E1,2.0835586E0,8.138793E0,4.9423035E1,3.0374651E1,1.2590856E1,1.3799798E0],"tree_param":{"num_deleted":"0","num_feature":"10","num_nodes":"115","size_leaf_vector":"1"}},{"base_weights":[5.8229435E-3,-4.2862084E-2,4.08308E-1,-6.561788E-2,2.804524E-1,-1.0379807E-1,4.2286554E-1,-1.2221564E-1,-5.8114033E-2,4.181933E-1,-1.17575765E-1,2.8964618E-1,5.2379936E-1,-9.0424664E-2,6.75226E-2,4.568163E-1,-1.0714095E-1,-4.841666E-1,1.14656106E-1,1.0995939E-1,1.1216972E-1,-1.6698748E-1,1.0984274E-1,-3.3141258E-3,-1.8468928E-1,-1.2674844E-1,2.803334E-1,7.456655E-2,5.1435727E-1,-1.17547944E-1,1.04416326E-1,-5.792124E-2,1.08924605E-1,9.9182084E-2,-1.0387577E-1,-1.2758614E-1,1.2971207E-1,1.298659E-1,-2.668892E-1,9.3155265E-2,-3.3955252E-1,4.4266614E-1,-1.3357787E-2,-3.5548696E-1,1.19630255E-1,5.7612073E-1,3.5191473E-1,2.2819902E-1,-3.944784E-1,-3.416883E-2,2.1810006E-1,-5.347153E-2,6.699603E-2,-2.844669E-2,1.0701721E-1,-7.5475395E-2,-2.0308085E-2,-1.2780099E-1,5.9609976E-2,-3.9094467E-2,-1.3891886E-1,1.0983783E-1,-1.500455E-1,-3.397892E-2,1.9000868E-1,-1.1328435E-1,9.190694E-2,1.1563227E-1,3.910444E-2,-1.11498535E-1,1.12006E-1,1.06455185E-1,-5.292294E-2,-1.0996496E-1,1.02336325E-1],"categories":[],"categories_nodes":[],"categories_segments":[],"categories_sizes":[],"default_left":[0,0,0,0,0,0,0,0,0,0,0,0,0,0,0,0,0,0,0,0,0,0,0,0,0,0,0,0,0,0,0,0,0,0,0,0,0,0,0,0,0,0,0,0,0,0,0,0,0,0,0,0,0,0,0,0,0,0,0,0,0,0,0,0,0,0,0,0,0,0,0,0,0,0,0],"id":16,"left_children":[1,3,5,7,9,-1,11,-1,13,15,17,19,21,23,25,27,-1,29,-1,-1,31,33,-1,35,37,39,41,43,45,-1,-1,47,-1,-1,-1,49,51,53,55,57,59,61,63,65,-1,67,69,71,73,-1,-1,-1,-1,-1,-1,-1,-1,-1,-1,-1,-1,-1,-1,-1,-1,-1,-1,-1,-1,-1,-1,-1,-1,-1,-1],"loss_changes":[1.6902628E2,5.6634766E1,1.2784729E1,2.9393917E1,2.7801022E1,0E0,1.2178284E1,0E0,2.8801964E1,1.4107559E1,3.3433918E1,1.829158E1,9.229034E0,4.633606E1,6.0052586E1,7.9276276E0,0E0,9.277475E0,0E0,0E0,1.7505495E1,4.751015E0,0E0,4.851608E1,7.010974E1,3.557767E1,3.304984E1,1.114576E1,2.953804E0,0E0,0E0,1.6595367E1,0E0,0E0,0E0,8.0135895E1,1.1562192E2,6.2060547E1,3.9221756E1,5.634849E1,1.9622204E1,5.7136604E1,3.751582E1,4.951182E0,0E0,6.277466E-2,1.7201736E1,1.411865E1,1.1419786E1,0E0,0E0,0E0,0E0,0E0,0E0,0E0,0E0,0E0,0E0,0E0,0E0,0E0,0E0,0E0,0E0,0E0,0E0,0E0,0E0,0E0,0E0,0E0,0E0,0E0,0E0],"parents":[2147483647,0,0,1,1,2,2,3,3,4,4,6,6,8,8,9,9,10,10,11,11,12,12,13,13,14,14,15,15,17,17,20,20,21,21,23,23,24,24,25,25,26,26,27,27,28,28,31,31,35,35,36,36,37,37,38,38,39,39,40,40,41,41,42,42,43,43,45,45,46,46,47,47,48,48],"right_children":[2,4,6,8,10,-1,12,-1,14,16,18,20,22,24,26,28,-1,30,-1,-1,32,34,-1,36,38,40,42,44,46,-1,-1,48,-1,-1,-1,50,52,54,56,58,60,62,64,66,-1,68,70,72,74,-1,-1,-1,-1,-1,-1,-1,-1,-1,-1,-1,-1,-1,-1,-1,-1,-1,-1,-1,-1,-1,-1,-1,-1,-1,-1],"split_conditions":[5.612245E-2,2.964824E-2,1.4698727E-3,1.0050251E-3,6.6376334E-1,-1.0379807E-1,4.9398345E-1,-1.2221564E-1,1.5306123E-2,2.9490616E-2,1.6466761E-2,3.043478E-1,2.2487035E-3,5.587982E-1,5.631221E-1,3.7730068E-3,-1.0714095E-1,8.235302E-1,1.14656106E-1,1.0995939E-1,1.8367347E-1,8.822795E-3,1.0984274E-1,7.5376886E-3,2.0997007E-3,4.347826E-1,7.246377E-1,4.4160005E-1,3.8625736E-2,-1.17547944E-1,1.04416326E-1,5.0938338E-2,1.08924605E-1,9.9182084E-2,-1.0387577E-1,5.4347825E-1,3.6956522E-1,6.0301507E-3,6.8089676E-1,2.0289855E-1,9.961374E-3,2.5469169E-2,9.351494E-3,4.2713568E-2,1.19630255E-1,8.604651E-1,4.5741003E-2,4.4052228E-1,3.9130434E-1,-3.416883E-2,2.1810006E-1,-5.347153E-2,6.699603E-2,-2.844669E-2,1.0701721E-1,-7.5475395E-2,-2.0308085E-2,-1.2780099E-1,5.9609976E-2,-3.9094467E-2,-1.3891886E-1,1.0983783E-1,-1.500455E-1,-3.397892E-2,1.9000868E-1,-1.1328435E-1,9.190694E-2,1.1563227E-1,3.910444E-2,-1.11498535E-1,1.12006E-1,1.06455185E-1,-5.292294E-2,-1.0996496E-1,1.02336325E-1],"split_indices":[3,5,5,5,8,0,7,0,3,2,6,8,6,8,7,2,0,7,0,0,3,2,0,5,6,8,7,7,6,0,0,2,0,0,0,8,8,5,7,7,6,2,6,5,0,0,6,8,8,0,0,0,0,0,0,0,0,0,0,0,0,0,0,0,0,0,0,0,0,0,0,0,0,0,0],"split_type":[0,0,0,0,0,0,0,0,0,0,0,0,0,0,0,0,0,0,0,0,0,0,0,0,0,0,0,0,0,0,0,0,0,0,0,0,0,0,0,0,0,0,0,0,0,0,0,0,0,0,0,0,0,0,0,0,0,0,0,0,0,0,0,0,0,0,0,0,0,0,0,0,0,0,0],"sum_hessian":[8.624099E3,7.6942837E3,9.2981537E2,7.189092E3,5.0519183E2,1.3835891E1,9.159795E2,9.646612E1,7.0926255E3,3.752744E2,1.2991743E2,3.9650912E2,5.194704E2,5.641939E3,1.4506869E3,3.611718E2,1.410261E1,8.507373E1,4.484371E1,1.5995055E2,2.3655856E2,1.82357E1,5.0123468E2,2.9327764E3,2.7091624E3,7.585892E2,6.9209766E2,4.7555103E1,3.136167E2,7.751139E1,7.5623384E0,1.7040253E2,6.6156044E1,6.1879745E0,1.2047726E1,1.516301E3,1.4164755E3,5.611656E2,2.1479968E3,3.7334784E2,3.8524136E2,4.4540207E2,2.4669559E2,2.6285883E1,2.126922E1,2.2537764E2,8.823906E1,9.227659E1,7.812594E1,1.4651295E3,5.1171513E1,4.826114E2,9.338641E2,3.3611697E2,2.2504861E2,1.2868369E3,8.611599E2,8.117226E1,2.921756E2,2.7513776E2,1.10103615E2,4.0938446E2,3.6017593E1,2.1292279E2,3.3772797E1,2.1123863E1,5.1620197E0,2.236594E2,1.718244E0,1.6120047E1,7.211902E1,5.7016243E1,3.526035E1,6.702827E1,1.1097668E1],"tree_param":{"num_deleted":"0","num_feature":"10","num_nodes":"75","size_leaf_vector":"1"}},{"base_weights":[-5.3359815E-3,4.291296E-2,-4.093026E-1,5.6174494E-2,-4.2652062E-1,-3.2348162E-3,-4.4575337E-1,6.324381E-2,-5.584071E-1,-6.063574E-1,3.972435E-1,-1.0676207E-1,2.884789E-1,-5.239097E-1,-2.7416426E-1,2.3244876E-2,1.690659E-1,-1.1617505E-1,5.18636E-2,-1.0926091E-1,-6.62436E-1,1.2184346E-1,-9.8209105E-2,-1.0014291E-1,4.2006734E-1,-1.1036708E-1,-2.434778E-1,7.370143E-2,-1.0878765E-1,4.0790868E-1,3.771035E-4,3.996318E-1,2.5688777E-2,-1.450606E-1,-1.1082206E-1,1.0856395E-1,-9.225575E-2,2.1713436E-1,-1.07210316E-1,-1.0813397E-1,3.8792682E-1,5.004202E-1,-1.2363591E-1,-1.614968E-1,7.6655275E-3,4.624597E-1,-9.3679076E-1,-7.2705543E-1,6.676542E-2,-9.710185E-2,1.0419106E-1,1.0961451E-1,4.4521227E-2,